svm_type c_svc
kernel_type rbf
gamma 0.0078125
nr_class 2
total_sv 170
rho 4.25987
label 1 -1
probA -5.25246
probB 0.913662
nr_sv 76 94
SV
22.54401568851475 1:0.312091 2:0.312091 3:0.0925594 4:0.0167866 5:0.0085435 6:0.00215479 7:0.0104002 8:0.0197585 9:0.17449 10:0.312091 11:0.312091 12:0.116431 13:0.0278941 14:0.0149714 15:0.00400965 16:0.017081 17:0.0116502 18:0.0435328 19:0.312091 20:0.210914 21:0.0420019 22:0.0497317 23:0.0228983 24:0.0346134 25:0.0816597 26:0.0978811 27:0.312091 28:0.312091 29:0.312091 30:0.0655278 31:0.019063 32:0.0102545 33:0.0245488 34:0.0773848 35:0.155659 36:0.242137 37:0.325967 38:0.325967 39:0.102369 40:0.0248732 41:0.0122683 42:0.0035331 43:0.0150819 44:0.00967461 45:0.0403671 46:0.325967 47:0.325967 48:0.0548977 49:0.017633 50:0.0303583 51:0.00575961 52:0.00880207 53:0.0188503 54:0.089285 55:0.325967 56:0.325967 57:0.0556855 58:0.0184596 59:0.00938484 60:0.0218354 61:0.0703601 62:0.131395 63:0.223227 64:0.325967 65:0.325967 66:0.0434361 67:0.00382264 68:0.0155556 69:0.013371 70:0.0278919 71:0.148441 72:0.140083 73:0.338711 74:0.338711 75:0.0545428 76:0.0162141 77:0.0246467 78:0.00486929 79:0.00785139 80:0.01578 81:0.0694542 82:0.338711 83:0.310183 84:0.00384134 85:0.0066718 86:0.0266499 87:0.00535924 88:0.00574261 89:0.0203596 90:0.164397 91:0.338711 92:0.338711 93:0.0413588 94:0.00372195 95:0.0135052 96:0.012182 97:0.0265637 98:0.130655 99:0.122602 100:0.338711 101:0.338711 102:0.00573249 103:0.000572982 104:0.00436091 105:0.00318295 106:0.00649179 107:0.102954 108:0.120353 109:0.358158 110:0.289616 111:0.00622474 112:0.00657831 113:0.0247826 114:0.0051139 115:0.00514783 116:0.0177312 117:0.135774 118:0.358158 119:0.165806 120:0.00155422 121:0.00239335 122:0.0129012 123:0.00128007 124:0.012266 125:0.0397423 126:0.358158 127:0.358158 128:0.358158 129:0.00700612 130:0.000630945 131:0.00437187 132:0.00325229 133:0.0061475 134:0.0928993 135:0.106423 136:0.358158 137:0.208962 138:0.0052726 139:0.00330146 140:0.00108275 141:0.00345917 142:0.00792352 143:0.0550483 144:0.164627 145:0.37651 146:0.15588 147:0.00120215 148:0.00241881 149:0.0123119 150:0.00148109 151:0.0106379 152:0.033295 153:0.310754 154:0.37651 155:0.0608118 156:0.0034654 157:0.000593457 158:0.00446874 159:3.70994e-005 160:0.0171092 161:0.0345878 162:0.37651 163:0.37651 164:0.196324 165:0.00404261 166:0.0025985 167:0.000849515 168:0.00273125 169:0.00647128 170:0.0526376 171:0.139165 172:0.37651 173:0.0861564 174:0.0134251 175:0.00449036 176:0.00144342 177:0.00685087 178:0.0117554 179:0.025275 180:0.301275 181:0.366887 182:0.0583095 183:0.00290876 184:0.000651448 185:0.00424144 186:2.88674e-005 187:0.0152342 188:0.0318095 189:0.366887 190:0.366887 191:0.00519271 192:0.00119187 193:0.00016134 194:0.000921032 195:6.35083e-005 196:0.00328194 197:0.0363216 198:0.366887 199:0.366887 200:0.080939 201:0.0110925 202:0.00404824 203:0.00129108 204:0.00562981 205:0.00993108 206:0.0211875 207:0.239554 208:0.336454 209:0.018391 210:0.00620622 211:0.000865164 212:0.00127337 213:0.00829775 214:0.00878442 215:0.0654524 216:0.366887 217:0.367309 218:0.00620592 219:0.00122719 220:0.000153363 221:0.000798227 222:5.80908e-005 223:0.0035285 224:0.0300239 225:0.367309 226:0.367309 227:0.0181074 228:8.86653e-005 230:0.00249346 231:3.61571e-005 232:5.12705e-005 233:0.139801 234:0.367309 235:0.304617 236:0.0181814 237:0.00606692 238:0.000995912 239:0.00113965 240:0.0073011 241:0.00802821 242:0.0514647 243:0.367212 244:0.210674 245:0.0134703 246:0.00200078 247:0.000262099 248:0.00130705 249:0.00397113 250:0.00486462 251:0.159799 252:0.367309 253:0.359309 254:0.0141208 255:9.17835e-005 257:0.00196922 258:2.25772e-005 259:5.13914e-005 260:0.108988 261:0.359309 262:0.240315 263:0.0367491 264:0.00287335 265:0.000276341 266:0.00532996 267:0.000200918 268:0.00227939 269:0.337656 270:0.359309 271:0.186931 272:0.0116877 273:0.00186584 274:0.000100186 275:0.000779475 276:0.00346202 277:0.00418131 278:0.131062 279:0.359309 280:0.160632 281:0.0117085 282:0.00703042 283:0.00705258 284:0.00497914 285:0.00662805 286:0.00763387 287:0.295299 288:0.359309 289:0.230095 290:0.032329 291:0.00202711 292:0.000137784 293:0.00446596 294:0.000128356 295:0.000887631 296:0.2798 297:0.345734 298:0.128257 299:0.0399326 300:0.00914289 301:0.00703142 302:0.0112768 303:0.00588439 304:0.0652692 305:0.345734 306:0.345734 307:0.141882 308:0.0101495 309:0.00563 310:0.00505229 311:0.003753 312:0.00499621 313:0.00504889 314:0.244395 315:0.345734 316:0.190216 317:0.0242991 318:0.0192362 319:0.0215196 320:0.00532136 321:0.0143512 322:0.0807899 323:0.345734 324:0.345734 325:0.120193 326:0.0348314 327:0.00800917 328:0.00381694 329:0.00918109 330:0.00412507 331:0.0536407 332:0.331527 333:0.331527 334:0.181371 335:0.064954 336:0.0378573 337:0.0573609 338:0.0302783 339:0.0321102 340:0.0863444 341:0.182292 342:0.331527 343:0.166612 344:0.0195766 345:0.0168124 346:0.0183211 347:0.00491691 348:0.0116367 349:0.0669709 350:0.331527 351:0.331527 352:0.331527 353:0.0700101 354:0.0446493 355:0.0425318 356:0.0156223 357:0.0289826 358:0.0953412 359:0.268041 360:0.331527 361:0.176269 362:0.0628194 363:0.0348158 364:0.0514314 365:0.0286996 366:0.029717 367:0.0939398 368:0.206038 369:0.336453 370:0.236623 371:0.0752735 372:0.0723297 373:0.05642 374:0.0243871 375:0.0325455 376:0.0414228 377:0.0772937 378:0.336453 379:0.336453 380:0.0664881 381:0.042665 382:0.0405117 383:0.0130035 384:0.0281047 385:0.105659 386:0.299474 387:0.336453 388:0.336453 389:0.113729 390:0.0723436 391:0.0921454 392:0.0505426 393:0.0247498 394:0.0483939 395:0.0656161 396:0.336453 397:0.250798 398:0.0792138 399:0.0775108 400:0.0660382 401:0.0276644 402:0.0371406 403:0.0471752 404:0.0845281 405:0.330054 406:0.318744 407:0.113151 408:0.0961116 409:0.0305349 410:0.0108603 411:0.00972842 412:0.0253338 413:0.0537884 414:0.330054 415:0.330054 416:0.116116 417:0.0756274 418:0.0932183 419:0.0499016 420:0.0280797 421:0.0538049 422:0.0776478 423:0.330054 424:0.330054 425:0.184369 426:0.14048 427:0.144476 428:0.0573784 429:0.0232684 430:0.0614436 431:0.0375375 432:0.330054 433:0.321454 434:0.111644 435:0.10014 436:0.0329802 437:0.0120469 438:0.012229 439:0.0288841 440:0.0609658 441:0.321454 442:0.321454 443:0.0861814 444:0.0536647 445:0.0273489 446:0.0122761 447:0.00477093 448:0.00706329 449:0.0142401 450:0.321454 451:0.321454 452:0.185976 453:0.140818 454:0.149874 455:0.0611992 456:0.0238284 457:0.065948 458:0.0397905 459:0.321454 460:0.321454 461:0.124376 462:0.105442 463:0.107785 464:0.0378033 465:0.0349556 466:0.0318612 467:0.0349614 468:0.321454 469:0.31896 470:0.19221 471:0.040518 472:0.0399775 473:0.0178229 474:0.026918 475:0.0638332 476:0.0807673 477:0.268774 478:0.31896 479:0.31896 480:0.0636836 481:0.0165703 482:0.00800409 483:0.0190867 484:0.0574461 485:0.11416 486:0.1874 487:0.215303 488:0.122277 489:0.0249714 490:0.0343309 491:0.0169035 492:0.0404905 493:0.104067 494:0.180107 495:0.31896 496:0.215847 497:0.137811 498:0.0142225 499:0.0127425 500:0.0100666 501:0.0421588 502:0.173204 503:0.31896 504:0.31896 505:0.32252 506:0.32252 507:0.0491459 508:0.0144932 509:0.00664685 510:0.0154235 511:0.0478241 512:0.0882191 513:0.15736 514:0.32252 515:0.32252 516:0.0370012 517:0.00329199 518:0.0110785 519:0.00944463 520:0.0175613 521:0.093375 522:0.101542 523:0.173168 524:0.105156 525:0.01132 526:0.0105548 527:0.0080088 528:0.0336443 529:0.134756 530:0.32252 531:0.32252 532:0.141109 533:0.136046 534:0.0118095 535:0.00757242 536:0.0150428 537:0.0180625 538:0.0784085 539:0.32252 540:0.32252 541:0.335335 542:0.335335 543:0.0385987 544:0.00352113 545:0.0104454 546:0.00935233 547:0.0180895 548:0.0897174 549:0.0961076 550:0.335335 551:0.335335 552:0.00469779 553:0.000655396 554:0.00341918 555:0.00244371 556:0.00491475 557:0.0712218 558:0.0975323 559:0.134793 560:0.128169 561:0.0112102 562:0.0073939 563:0.0142534 564:0.0181554 565:0.0825844 566:0.335335 567:0.335335 568:0.116275 569:0.0850955 570:0.00445234 571:0.00240174 572:0.00452668 573:0.00394849 574:0.0117349 575:0.335335 576:0.335335 577:0.352467 578:0.352467 579:0.00708632 580:0.000815236 581:0.00407454 582:0.00297077 583:0.00538689 584:0.0761001 585:0.102606 586:0.352467 587:0.236618 588:0.00542927 589:0.00329024 590:0.00101278 591:0.00281632 592:0.00820986 593:0.0492037 594:0.170084 595:0.12448 596:0.0941092 597:0.00538358 598:0.00301439 599:0.00543498 600:0.00419268 601:0.0144182 602:0.352467 603:0.352467 604:0.192494 605:0.0444583 606:0.00277303 607:0.00342276 608:0.00126286 609:0.027712 610:0.0288413 611:0.286193 612:0.352467 613:0.349591 614:0.254619 615:0.00477635 616:0.00302701 617:0.000917419 618:0.00253826 619:0.00769961 620:0.0534894 621:0.162928 622:0.349591 623:0.110385 624:0.0156435 625:0.00491758 626:0.00153426 627:0.00638177 628:0.0137595 629:0.028741 630:0.349591 631:0.187772 632:0.0481035 633:0.00252586 634:0.00318777 635:0.00114522 636:0.0250314 637:0.0267549 638:0.318874 639:0.349591 640:0.349591 641:0.0351182 642:0.00817359 643:0.00446593 644:0.00231886 645:0.0386231 646:0.043012 647:0.100469 648:0.349591 649:0.344458 650:0.118361 651:0.0147063 652:0.0050357 653:0.00155676 654:0.0059196 655:0.0133166 656:0.027122 657:0.344458 658:0.344458 659:0.0224465 660:0.00808509 661:0.00111206 662:0.00158819 663:0.00965691 664:0.0106805 665:0.0941096 666:0.344458 667:0.33781 668:0.0330245 669:0.00764947 670:0.0047232 671:0.00227488 672:0.039786 673:0.0432184 674:0.106355 675:0.344458 676:0.344458 677:0.0930852 678:0.00667931 679:0.000669625 680:0.00326309 681:0.0159851 682:0.0174434 683:0.0427553 684:0.344458 685:0.340919 686:0.021444 687:0.00740081 688:0.00118036 689:0.00132418 690:0.00791137 691:0.00917177 692:0.0688489 693:0.340919 694:0.276737 695:0.0154674 696:0.00228886 697:0.000291254 698:0.00147889 699:0.00441365 700:0.00543921 701:0.221784 702:0.340919 703:0.340919 704:0.0691437 705:0.00569874 706:0.000842561 707:0.00266183 708:0.0146613 709:0.0159178 710:0.0363558 711:0.340919 712:0.340919 713:0.207328 714:0.00318484 715:0.00037447 716:0.00226511 717:0.00536817 718:0.00709573 719:0.0430052 720:0.340919 721:0.218111 722:0.011628 723:0.00188483 724:9.77391e-005 725:0.00078223 726:0.00337789 727:0.00409101 728:0.15924 729:0.355639 730:0.154988 731:0.0131607 732:0.00696436 733:0.00690198 734:0.00485884 735:0.00647002 736:0.00851506 737:0.355639 738:0.355639 739:0.355639 740:0.147747 741:0.00267535 742:0.000125665 743:0.00134234 744:0.00417496 745:0.00505763 746:0.032076 747:0.268216 748:0.355639 749:0.282447 750:0.00785656 751:0.00819963 752:0.00573403 753:0.00682322 754:0.00919748 755:0.0616891 756:0.296312 757:0.115336 758:0.0096441 759:0.00459242 760:0.00407906 761:0.00302526 762:0.00402845 763:0.004464 764:0.249869 765:0.351065 766:0.134683 767:0.0185837 768:0.0158722 769:0.0178513 770:0.00457096 771:0.012388 772:0.0835525 773:0.351065 774:0.351065 775:0.351065 776:0.195625 777:0.00516686 778:0.00484207 779:0.00360227 780:0.00439028 781:0.00603436 782:0.0411396 783:0.217841 784:0.351065 785:0.31685 786:0.0288647 787:0.0202309 788:0.00427561 789:0.00833251 790:0.0175804 791:0.111975 792:0.275731 793:0.0977741 794:0.0124385 795:0.0115798 796:0.0125446 797:0.00346727 798:0.008295 799:0.0578097 800:0.325698 801:0.335544 802:0.303672 803:0.0504713 804:0.0353168 805:0.0326049 806:0.012075 807:0.0240249 808:0.0827734 809:0.21852 810:0.335544 811:0.335544 812:0.236255 813:0.0202572 814:0.0146569 815:0.00348335 816:0.00591732 817:0.012584 818:0.0813376 819:0.204198 820:0.335544 821:0.212076 822:0.0405503 823:0.0213511 824:0.00720799 825:0.00655345 826:0.0187344 827:0.0964886 828:0.335544 829:0.259947 830:0.0431584 831:0.0303836 832:0.0280119 833:0.00925988 834:0.0209774 835:0.083437 836:0.22239 837:0.331133 838:0.331133 839:0.0778555 840:0.0551014 841:0.06047 842:0.0321643 843:0.0192579 844:0.034637 845:0.0474244 846:0.331133 847:0.331133 848:0.209004 849:0.0369478 850:0.0195891 851:0.00518904 852:0.00624087 853:0.0173606 854:0.0922252 855:0.331133 856:0.331133 857:0.142764 858:0.0310689 859:0.0439229 860:0.0381887 861:0.0142163 862:0.0460894 863:0.0456878 864:0.331133 865:0.329302 866:0.0863038 867:0.0628781 868:0.0671611 869:0.0348685 870:0.023928 871:0.0426582 872:0.0612905 873:0.329302 874:0.288613 875:0.143814 876:0.11479 877:0.102076 878:0.038973 879:0.0168875 880:0.0448387 881:0.0286609 882:0.329302 883:0.329302 884:0.166696 885:0.0365745 886:0.0475146 887:0.0387344 888:0.0133949 889:0.0491163 890:0.0563964 891:0.329302 892:0.329302 893:0.170876 894:0.0832561 895:0.084804 896:0.0782833 897:0.0597858 898:0.0843994 899:0.0366681 900:0.300723 901:0.303788 902:0.172519 903:0.137982 904:0.126254 905:0.0496528 906:0.020947 907:0.0575585 908:0.0364365 909:0.303788 910:0.303788 911:0.118217 912:0.0990752 913:0.0915623 914:0.0314531 915:0.0293823 916:0.0276311 917:0.0292916 918:0.303788 919:0.303788 920:0.216221 921:0.0949038 922:0.104822 923:0.0960926 924:0.0698013 925:0.109623 926:0.0467994 927:0.303788 928:0.303788 929:0.153885 930:0.120363 931:0.0848849 932:0.0521064 933:0.0541678 934:0.0388921 935:0.0559932 936:0.303788 937:0.200648 938:0.11438 939:0.0240195 940:0.0345294 941:0.0167904 942:0.039658 943:0.100887 944:0.16149 945:0.312624 946:0.21501 947:0.147742 948:0.0151745 949:0.010635 950:0.00990105 951:0.0391259 952:0.152713 953:0.312624 954:0.312624 955:0.312624 956:0.0776838 957:0.0287192 958:0.0130015 959:0.0239076 960:0.0116603 961:0.0356566 962:0.0827329 963:0.312624 964:0.312624 965:0.0306367 966:0.0158032 967:0.0240752 968:0.0179477 969:0.021944 970:0.100032 971:0.312624 972:0.312624 973:0.154534 974:0.100923 975:0.0107612 976:0.00819078 977:0.00706366 978:0.0280925 979:0.107626 980:0.307293 981:0.309351 982:0.128487 983:0.13294 984:0.0104783 985:0.00418606 986:0.0135683 987:0.0153861 988:0.0594338 989:0.309351 990:0.309351 991:0.309351 992:0.0236132 993:0.0116162 994:0.0153389 995:0.0129468 996:0.0155591 997:0.0678145 998:0.206964 999:0.309351 1000:0.309351 1001:0.00414056 1002:0.0137334 1003:0.02748 1004:0.0124271 1005:0.00663533 1006:0.0450747 1007:0.309351 1008:0.309351 1009:0.0983345 1010:0.100534 1011:0.00813757 1012:0.00328101 1013:0.0103101 1014:0.0123838 1015:0.0501542 1016:0.314434 1017:0.264778 1018:0.0850225 1019:0.0683871 1020:0.00254485 1021:0.000954695 1022:0.00326072 1023:0.0027808 1024:0.00760876 1025:0.314434 1026:0.314434 1027:0.314434 1028:0.00382328 1029:0.0100507 1030:0.0215392 1031:0.00971054 1032:0.00550156 1033:0.038186 1034:0.314434 1035:0.314434 1036:0.314434 1037:3.74139e-005 1038:0.00733755 1039:0.00793368 1040:0.00426943 1041:0.00073876 1042:0.00369277 1043:0.314434 1044:0.314434 1045:0.0784615 1046:0.0651898 1047:0.00271817 1048:0.00103409 1049:0.00337433 1050:0.00262323 1051:0.00793784 1052:0.296412 1053:0.303186 1054:0.106905 1055:0.0327869 1056:0.00168253 1057:0.00212327 1058:0.000803253 1059:0.0139711 1060:0.015276 1061:0.147265 1062:0.31517 1063:0.349171 1064:3.13745e-005 1065:0.00739053 1066:0.00860128 1067:0.00443311 1068:0.000395906 1069:0.00418093 1070:0.345197 1071:0.362177 1072:0.362177 1073:0.000166062 1074:0.000764649 1075:0.000647575 1076:0.00186162 1077:0.0141889 1078:0.0102785 1079:0.192538 1080:0.362177 1081:0.102164 1082:0.0342238 1083:0.00146372 1084:0.00186544 1085:0.000699244 1086:0.0122077 1087:0.0137097 1088:0.158751 1089:0.315664 1090:0.17545 1091:0.0223391 1092:0.00490566 1093:0.00272924 1094:0.00138767 1095:0.0192068 1096:0.0221653 1097:0.0503205 1098:0.274388 1099:0.419032 1100:0.000160465 1101:0.000891713 1102:0.00103271 1103:0.0018534 1104:0.0123725 1105:0.00923156 1106:0.208594 1107:0.419032 1108:0.419032 1109:0.00435376 1110:0.000196415 1111:0.000143104 1112:0.00211874 1113:0.0165965 1114:0.0148633 1115:0.0489324 1116:0.419032 1117:0.161257 1118:0.0212436 1119:0.004524 1120:0.00284185 1121:0.00134625 1122:0.0193392 1123:0.0218126 1124:0.0520879 1125:0.258537 1126:0.24064 1127:0.0453503 1128:0.00379345 1129:0.000393539 1130:0.00182409 1131:0.00907905 1132:0.00977486 1133:0.025356 1134:0.220187 1135:0.442822 1136:0.00311083 1137:0.000181471 1138:0.00015438 1139:0.00208686 1140:0.017359 1141:0.0149099 1142:0.0533755 1143:0.442822 1144:0.442822 1145:0.0397475 1146:0.000482044 1147:1.0292e-005 1148:0.00128129 1149:0.0022985 1150:0.00310815 1151:0.00735642 1152:0.442822 1153:0.198723 1154:0.0356072 1155:0.00340248 1156:0.000524104 1157:0.00156411 1158:0.00854414 1159:0.00924389 1160:0.0219634 1161:0.191962 1162:0.335751 1163:0.103356 1164:0.00190171 1165:0.000238559 1166:0.00138326 1167:0.00342022 1168:0.00444724 1169:0.0305478 1170:0.177921 1171:0.429232 1172:0.0298701 1173:0.000395081 1174:2.01053e-005 1175:0.00115922 1176:0.00287794 1177:0.00327587 1178:0.00755799 1179:0.429232 1180:0.429232 1181:0.153207 1182:0.000297046 1183:1.59039e-005 1184:0.00183834 1185:0.000208054 1186:0.000391199 1187:0.0022058 1188:0.429232 1189:0.256148 1190:0.0774491 1191:0.00167038 1192:8.40436e-005 1193:0.000845792 1194:0.00279241 1195:0.00335706 1196:0.0238351 1197:0.142105 1198:0.38706 1199:0.146444 1200:0.00524897 1201:0.00548471 1202:0.00383557 1203:0.00456534 1204:0.00590897 1205:0.0453123 1206:0.173389 1207:0.38706 1208:0.109311 1209:0.000274215 1210:5.60291e-006 1211:0.00137943 1212:0.000174674 1213:0.000240995 1214:0.00177929 1215:0.38706 1216:0.38706 1217:0.298316 1218:0.00029722 1219:0.000322402 1220:0.00262782 1221:0.000202129 1222:0.00105192 1223:0.00404578 1224:0.38706 1225:0.350356 1226:0.115282 1227:0.00391114 1228:0.00367673 1229:0.00273531 1230:0.00333434 1231:0.00435257 1232:0.0344887 1233:0.143528 1234:0.350356 1235:0.187285 1236:0.0205072 1237:0.0151175 1238:0.00314306 1239:0.00605062 1240:0.01477 1241:0.0872973 1242:0.189617 1243:0.350356 1244:0.233172 1245:0.000226524 1246:0.000214928 1247:0.00214469 1248:0.000161047 1249:0.000764658 1250:0.00297636 1251:0.350356 1252:0.350356 1253:0.300399 1254:0.0159582 1255:0.00483279 1256:0.00439329 1257:0.00270389 1258:0.0101051 1259:0.0161642 1260:0.350356 1261:0.334549 1262:0.166065 1263:0.0172491 1264:0.0131103 1265:0.00307073 1266:0.00516369 1267:0.0125812 1268:0.0760407 1269:0.167917 1270:0.334549 1271:0.156416 1272:0.0334343 1273:0.0181882 1274:0.0060983 1275:0.00479348 1276:0.0160655 1277:0.084391 1278:0.334549 1279:0.334549 1280:0.275988 1281:0.0121355 1282:0.00296188 1283:0.0037398 1284:0.00188527 1285:0.0076415 1286:0.0136577 1287:0.334549 1288:0.334549 1289:0.188988 1290:0.0495216 1291:0.0213318 1292:0.0153194 1293:0.011656 1294:0.0352686 1295:0.0282355 1296:0.334549 1297:0.328981 1298:0.17041 1299:0.0339744 1300:0.0186895 1301:0.00482057 1302:0.00520441 1303:0.0172178 1304:0.0903117 1305:0.328981 1306:0.328981 1307:0.124193 1308:0.0289651 1309:0.0427305 1310:0.0354133 1311:0.0109143 1312:0.0401057 1313:0.0416509 1314:0.328981 1315:0.328981 1316:0.211593 1317:0.0483385 1318:0.0198374 1319:0.0145777 1320:0.0111534 1321:0.0340212 1322:0.0291046 1323:0.328981 1324:0.328981 1325:0.100822 1326:0.0608079 1327:0.0305443 1328:0.0430493 1329:0.0284292 1330:0.0349573 1331:0.0225538 1332:0.328981 1333:0.333638 1334:0.155264 1335:0.0364927 1336:0.049434 1337:0.0386574 1338:0.0108593 1339:0.0456779 1340:0.0552567 1341:0.333638 1342:0.333638 1343:0.157563 1344:0.0816229 1345:0.0883065 1346:0.0733928 1347:0.0528856 1348:0.0802413 1349:0.033714 1350:0.276705 1351:0.333638 1352:0.130543 1353:0.0759064 1354:0.0364259 1355:0.0498067 1356:0.0311026 1357:0.0446565 1358:0.0297101 1359:0.333638 1360:0.333638 1361:0.114414 1362:0.102767 1363:0.0656443 1364:0.0963651 1365:0.0813582 1366:0.0466486 1367:0.0508459 1368:0.288881 1369:0.304158 1370:0.20297 1371:0.0949758 1372:0.111049 1373:0.0919946 1374:0.0625205 1375:0.106058 1376:0.0437942 1377:0.304158 1378:0.29008 1379:0.140921 1380:0.115988 1381:0.0898528 1382:0.0503068 1383:0.0523382 1384:0.0372874 1385:0.0529237 1386:0.304158 1387:0.304158 1388:0.146158 1389:0.126432 1390:0.0796678 1391:0.121126 1392:0.0991385 1393:0.0588246 1394:0.0606704 1395:0.304158 1396:0.304158 1397:0.138374 1398:0.0962138 1399:0.0455391 1400:0.0606599 1401:0.0499649 1402:0.0454725 1403:0.110626 1404:0.304158 
9.127871271833964 1:0.321768 2:0.0186308 3:0.00973547 4:0.00574688 5:0.0199606 6:0.0285359 7:0.0257596 8:0.147195 9:0.321768 10:0.321768 11:0.0974755 12:0.0320832 13:0.0194579 14:0.0224641 15:0.024598 16:0.0376091 17:0.101393 18:0.321768 19:0.321768 20:0.123683 21:0.0576554 22:0.0137069 23:0.0244829 24:0.0387623 25:0.0499844 26:0.167173 27:0.321768 28:0.321768 29:0.14841 30:0.0531641 31:0.0103726 32:0.0181924 33:0.0628299 34:0.0740565 35:0.186278 36:0.321768 37:0.295543 38:0.0636305 39:0.0213433 40:0.0129662 41:0.0185327 42:0.019844 43:0.0275937 44:0.084795 45:0.295543 46:0.295543 47:0.295543 48:0.122633 49:0.0438366 50:0.0110945 51:0.00819887 52:0.0403536 53:0.0533023 54:0.187798 55:0.295543 56:0.110754 57:0.0408524 58:0.00786816 59:0.0153666 60:0.0472615 61:0.0530571 62:0.135881 63:0.295543 64:0.295543 65:0.289348 66:0.0531806 67:0.012565 68:0.00443654 69:0.0326865 70:0.123061 71:0.295543 72:0.295543 73:0.291109 74:0.291109 75:0.101887 76:0.0377806 77:0.0107077 78:0.00821219 79:0.0372689 80:0.048129 81:0.193127 82:0.291109 83:0.291109 84:0.146931 85:0.0218838 86:0.0067168 87:0.00332167 88:0.0199379 89:0.03583 90:0.075262 91:0.291109 92:0.24897 93:0.0465305 94:0.0113451 95:0.00441532 96:0.0314025 97:0.105643 98:0.291109 99:0.291109 100:0.175002 101:0.291109 102:0.0638946 103:0.00888445 104:0.00981797 105:0.0164383 106:0.109473 107:0.291109 108:0.168357 109:0.309738 110:0.309738 111:0.156587 112:0.02476 113:0.0069366 114:0.00333382 115:0.0227908 116:0.0388826 117:0.0757259 118:0.309738 119:0.309738 120:0.0826136 121:0.00506724 122:0.00744766 123:0.00243996 124:0.00467108 125:0.0173641 126:0.280022 127:0.186344 128:0.309738 129:0.0651684 130:0.00863274 131:0.00903201 132:0.0156593 133:0.119467 134:0.309738 135:0.176133 136:0.171048 137:0.254079 138:0.0589716 139:0.0204925 140:0.0201681 141:0.0208702 142:0.0408493 143:0.207676 144:0.273231 145:0.343685 146:0.343685 147:0.0861216 148:0.00452169 149:0.00733523 150:0.00266615 151:0.00545154 152:0.016908 153:0.24262 154:0.343685 155:0.211104 156:0.0277959 157:0.00419034 158:0.00411646 159:0.00122163 160:0.00374463 161:0.0234794 162:0.343685 163:0.162583 164:0.256401 165:0.0587703 166:0.0183965 167:0.0199964 168:0.0201886 169:0.0453526 170:0.218361 171:0.252649 172:0.241394 173:0.114074 174:0.0264191 175:0.0138544 176:0.00959835 177:0.0157315 178:0.0214875 179:0.100158 180:0.343685 181:0.376706 182:0.207453 183:0.0282438 184:0.00398943 185:0.00398956 186:0.00117025 187:0.00321407 188:0.0195096 189:0.376706 190:0.376706 191:0.0353763 192:0.0030225 193:0.00381284 194:0.0043048 195:0.000473716 196:0.00607947 197:0.0335036 198:0.376706 199:0.208315 200:0.112819 201:0.0261615 202:0.0134776 203:0.00975311 204:0.015179 205:0.0196491 206:0.0899931 207:0.31565 208:0.304616 209:0.0217762 210:0.00759211 211:0.00727769 212:0.00304251 213:0.00457318 214:0.0106182 215:0.0593326 216:0.345576 217:0.384179 218:0.0354704 219:0.00279225 220:0.00285419 221:0.00283384 222:0.000441014 223:0.00517041 224:0.0270635 225:0.384179 226:0.384179 227:0.0121803 228:0.00399161 229:0.0150421 230:0.0235533 231:0.00258183 232:0.00500679 233:0.0616721 234:0.384179 235:0.252722 236:0.0209269 237:0.00653598 238:0.00587484 239:0.00232266 240:0.00440517 241:0.00941738 242:0.0510133 243:0.291036 244:0.329517 245:0.0195285 246:0.0132349 247:0.0115219 248:0.0104901 249:0.00188048 250:0.00816312 251:0.0516375 252:0.367489 253:0.365934 254:0.00862732 255:0.00331947 256:0.0116122 257:0.0173605 258:0.000959994 259:0.00294961 260:0.0460907 261:0.365934 262:0.365934 263:0.0319469 264:0.00232244 265:0.0133867 266:0.0242198 267:0.0294774 268:0.043301 269:0.112896 270:0.365934 271:0.26648 272:0.0132563 273:0.0102549 274:0.00927507 275:0.00783526 276:0.000996864 277:0.00542656 278:0.0404287 279:0.298411 280:0.365934 281:0.0726478 282:0.0127241 283:0.00703299 284:0.0100266 285:0.0160003 286:0.0349404 287:0.0611595 288:0.365934 289:0.347337 290:0.022719 291:0.00181006 292:0.0109517 293:0.0196229 294:0.0184673 295:0.0292247 296:0.0809584 297:0.347337 298:0.347337 299:0.018572 300:0.00128631 301:0.0023917 302:0.00889046 303:0.0849997 304:0.0656263 305:0.207621 306:0.347337 307:0.293475 308:0.0496856 309:0.0100324 310:0.00580409 311:0.00818334 312:0.0102277 313:0.0243529 314:0.0463018 315:0.321786 316:0.347337 317:0.0831398 318:0.0168352 319:0.00262239 320:0.00271676 321:0.0311486 322:0.031861 323:0.0666827 324:0.347337 325:0.31862 326:0.0148178 327:0.000883768 328:0.00198218 329:0.0065179 330:0.0572986 331:0.0452071 332:0.140131 333:0.339666 334:0.338755 335:0.00850872 336:0.00555781 337:0.00304595 338:0.0049384 339:0.0597249 340:0.0986556 341:0.180843 342:0.339666 343:0.339666 344:0.0598447 345:0.0108257 346:0.00186574 347:0.00209438 348:0.0216575 349:0.0240036 350:0.0467029 351:0.339666 352:0.339666 353:0.0635975 354:0.0333555 355:0.0093924 356:0.000793792 357:0.0158956 358:0.0167793 359:0.0633238 360:0.339666 361:0.265231 362:0.00636078 363:0.00394015 364:0.00219616 365:0.00424053 366:0.0519363 367:0.0746297 368:0.151479 369:0.351844 370:0.351844 371:0.0277282 372:0.0149613 373:0.0116257 374:0.0121137 375:0.0334844 376:0.0582164 377:0.0829571 378:0.351844 379:0.351844 380:0.0508725 381:0.025615 382:0.00678747 383:0.000735843 384:0.0141716 385:0.0135134 386:0.0506717 387:0.351844 388:0.351844 389:0.0635796 390:0.0338757 391:0.0182887 392:0.00108395 393:0.00505474 394:0.00950484 395:0.0611165 396:0.351844 397:0.346305 398:0.0229075 399:0.0128355 400:0.00991854 401:0.0098822 402:0.0294298 403:0.0566343 404:0.0804483 405:0.346305 406:0.346305 407:0.0438424 408:0.0140122 409:0.0151959 410:0.0260134 411:0.0435983 412:0.0163907 413:0.0495647 414:0.346305 415:0.346305 416:0.056842 417:0.0305518 418:0.0162747 419:0.000913286 420:0.00455263 421:0.00896188 422:0.0555506 423:0.346305 424:0.346305 425:0.0593778 426:0.0411564 427:0.0223346 428:0.00457527 429:0.00801 430:0.0110073 431:0.0670617 432:0.346305 433:0.339358 434:0.0466805 435:0.01522 436:0.0165426 437:0.0279491 438:0.0481006 439:0.0182114 440:0.0555828 441:0.339358 442:0.339358 443:0.0728355 444:0.0201268 445:0.0479719 446:0.0334938 447:0.0243965 448:0.0419238 449:0.0481571 450:0.339358 451:0.339358 452:0.0628675 453:0.0426468 454:0.0234122 455:0.00475491 456:0.00857281 457:0.010498 458:0.0709434 459:0.339358 460:0.339358 461:0.134846 462:0.0654584 463:0.0437871 464:0.00775275 465:0.0074613 466:0.0491009 467:0.117567 468:0.339358 469:0.298911 470:0.0838276 471:0.0396695 472:0.01023 473:0.0189874 474:0.0310917 475:0.0371015 476:0.123088 477:0.246698 478:0.319795 479:0.111155 480:0.0394252 481:0.00833534 482:0.0142888 483:0.0460213 484:0.0531537 485:0.127406 486:0.319795 487:0.319795 488:0.213102 489:0.0655409 490:0.0141826 491:0.0158288 492:0.0133799 493:0.034308 494:0.215909 495:0.319795 496:0.319795 497:0.159425 498:0.0373915 499:0.0388425 500:0.0595782 501:0.0387449 502:0.052259 503:0.191905 504:0.319795 505:0.296909 506:0.0877996 507:0.0322832 508:0.00674313 509:0.0130192 510:0.0375527 511:0.0413408 512:0.101589 513:0.296909 514:0.296909 515:0.260331 516:0.0472044 517:0.0116156 518:0.0035299 519:0.024259 520:0.089215 521:0.264878 522:0.296909 523:0.296909 524:0.141698 525:0.0343699 526:0.0294172 527:0.0466966 528:0.0302258 529:0.0370062 530:0.149533 531:0.296909 532:0.159645 533:0.057159 534:0.0124272 535:0.0401046 536:0.0540543 537:0.0497813 538:0.188858 539:0.296909 540:0.296909 541:0.298499 542:0.230911 543:0.0426059 544:0.010754 545:0.00367344 546:0.0242898 547:0.0796723 548:0.233319 549:0.298499 550:0.171612 551:0.298499 552:0.0590851 553:0.00813945 554:0.00786196 555:0.0124999 556:0.0809546 557:0.297147 558:0.118407 559:0.167652 560:0.0607671 561:0.0125626 562:0.0398686 563:0.0551635 564:0.0461893 565:0.162822 566:0.298499 567:0.298499 568:0.110294 569:0.0201035 570:0.00824273 571:0.0108363 572:0.0131095 573:0.0271546 574:0.188872 575:0.298499 576:0.298499 577:0.175495 578:0.334602 579:0.0586641 580:0.00784558 581:0.00702782 582:0.0114996 583:0.085799 584:0.301804 585:0.121906 586:0.170797 587:0.236951 588:0.0513181 589:0.0159688 590:0.0155448 591:0.0153613 592:0.0291028 593:0.140179 594:0.182667 595:0.105703 596:0.0221679 597:0.00823732 598:0.0119344 599:0.0152325 600:0.0270651 601:0.20043 602:0.335103 603:0.335103 604:0.292985 605:0.010942 606:0.00725627 607:0.00718985 608:0.0119915 609:0.0324975 610:0.0700174 611:0.335103 612:0.335103 613:0.164437 614:0.242187 615:0.0518957 616:0.0145045 617:0.015616 618:0.01512 619:0.0327059 620:0.148996 621:0.170212 622:0.235366 623:0.106464 624:0.0226023 625:0.0108874 626:0.00734975 627:0.0116366 628:0.0161858 629:0.0715254 630:0.263792 631:0.262534 632:0.0111668 633:0.00736651 634:0.00653618 635:0.0114158 636:0.029432 637:0.0775588 638:0.380353 639:0.39741 640:0.39741 641:0.0089868 642:0.00972654 643:0.00531314 644:0.0104184 645:0.0256721 646:0.0304832 647:0.125196 648:0.39741 649:0.206667 650:0.107011 651:0.0228202 652:0.0107693 653:0.00758976 654:0.0113893 655:0.0149527 656:0.0647166 657:0.234441 658:0.280452 659:0.0201177 660:0.00577258 661:0.00555453 662:0.00244963 663:0.0034504 664:0.00842248 665:0.0472663 666:0.288812 667:0.41776 668:0.00803142 669:0.00846319 670:0.00515386 671:0.0104298 672:0.0257152 673:0.0292458 674:0.119646 675:0.41776 676:0.41776 677:0.00625768 678:0.0144177 679:0.00678721 680:0.00366662 681:0.00331581 682:0.00835513 683:0.0450045 684:0.41776 685:0.242477 686:0.0200046 687:0.00518065 688:0.0046283 689:0.00188548 690:0.00343278 691:0.00770637 692:0.0415661 693:0.248478 694:0.277691 695:0.0166091 696:0.010113 697:0.00980799 698:0.00963192 699:0.00163729 700:0.00661871 701:0.047101 702:0.353487 703:0.407476 704:0.00574841 705:0.0121459 706:0.00549265 707:0.00343333 708:0.00367007 709:0.00793348 710:0.0424392 711:0.407476 712:0.407476 713:0.0259307 714:0.032513 715:0.0104067 716:0.00296132 717:0.0019931 718:0.00337034 719:0.011698 720:0.407476 721:0.223295 722:0.0113164 723:0.00774116 724:0.00775411 725:0.00707339 726:0.000820332 727:0.0043106 728:0.0363038 729:0.281709 730:0.333114 731:0.0548508 732:0.00954595 733:0.00628498 734:0.00923127 735:0.0143552 736:0.029909 737:0.0555987 738:0.379144 739:0.379144 740:0.0151503 741:0.0246024 742:0.00848731 743:0.0024584 744:0.0011868 745:0.00229116 746:0.00945649 747:0.379144 748:0.379144 749:0.160741 750:0.0317758 751:0.00360817 752:0.00394097 753:0.00973724 754:0.0112231 755:0.0108559 756:0.379144 757:0.242578 758:0.0372617 759:0.007484 760:0.00511092 761:0.00742852 762:0.00904236 763:0.0205061 764:0.041502 765:0.298776 766:0.350072 767:0.0551062 768:0.00839489 769:0.00220559 770:0.00251375 771:0.0287787 772:0.0286998 773:0.0646948 774:0.350072 775:0.350072 776:0.105461 777:0.0244121 778:0.00299677 779:0.00285091 780:0.00653492 781:0.00781849 782:0.00812517 783:0.350072 784:0.350072 785:0.286637 786:0.078068 787:0.0019805 788:0.00410239 789:0.00898329 790:0.00875145 791:0.00656579 792:0.350072 793:0.293997 794:0.0409802 795:0.0055951 796:0.00161504 797:0.00196952 798:0.0203191 799:0.0217626 800:0.0458512 801:0.33843 802:0.33843 803:0.0436563 804:0.0206872 805:0.00770598 806:0.000771064 807:0.0157534 808:0.0195243 809:0.0607754 810:0.33843 811:0.33843 812:0.202218 813:0.0506711 814:0.00139231 815:0.00257126 816:0.00678281 817:0.00690467 818:0.00492539 819:0.33843 820:0.33843 821:0.20144 822:0.111446 823:0.00452296 824:0.00728336 825:0.00182323 826:0.00128939 827:0.0187878 828:0.33843 829:0.342371 830:0.0341038 831:0.0152297 832:0.00549108 833:0.000704804 834:0.013782 835:0.0152074 836:0.0485232 837:0.342371 838:0.342371 839:0.0487426 840:0.0261339 841:0.0149003 842:0.00133369 843:0.00560625 844:0.0099524 845:0.0525888 846:0.342371 847:0.342371 848:0.16734 849:0.0897705 850:0.00331055 851:0.00514303 852:0.00166613 853:0.00130555 854:0.0127808 855:0.341314 856:0.342371 857:0.0886738 858:0.0507334 859:0.00840643 860:0.00378092 861:0.00733521 862:0.0174701 863:0.0450617 864:0.342371 865:0.346881 866:0.0443971 867:0.0238805 868:0.0135958 869:0.00114302 870:0.00515663 871:0.00993123 872:0.049157 873:0.346881 874:0.346881 875:0.0492614 876:0.0329318 877:0.0187756 878:0.00469631 879:0.00799676 880:0.00905251 881:0.0588075 882:0.346881 883:0.346881 884:0.0868423 885:0.0496944 886:0.00758015 887:0.00401795 888:0.00594507 889:0.01383 890:0.0397576 891:0.346881 892:0.346881 893:0.0517044 894:0.0445509 895:0.011459 896:0.000826841 897:0.0185228 898:0.0285633 899:0.0576349 900:0.346881 901:0.339969 902:0.0513759 903:0.0339481 904:0.0194805 905:0.00489537 906:0.00859807 907:0.00828682 908:0.061779 909:0.339969 910:0.339969 911:0.115231 912:0.050329 913:0.0371172 914:0.00724269 915:0.00723351 916:0.0471185 917:0.0942368 918:0.339969 919:0.339969 920:0.0566015 921:0.0468577 922:0.0120036 923:0.000808561 924:0.0197977 925:0.0319622 926:0.0615649 927:0.339969 928:0.339969 929:0.071096 930:0.0591225 931:0.0197595 932:0.00247789 933:0.0084368 934:0.0161382 935:0.12408 936:0.339969 937:0.305182 938:0.176548 939:0.0537435 940:0.0118862 941:0.0131502 942:0.0114643 943:0.0280119 944:0.166483 945:0.305182 946:0.305182 947:0.131749 948:0.0303117 949:0.0288472 950:0.0439608 951:0.0320355 952:0.0437061 953:0.154983 954:0.305182 955:0.265975 956:0.244952 957:0.104315 958:0.0164763 959:0.0316554 960:0.0256304 961:0.0229211 962:0.137466 963:0.305182 964:0.305182 965:0.216773 966:0.0703807 967:0.0434793 968:0.0674571 969:0.0255092 970:0.0241502 971:0.106773 972:0.305182 973:0.319513 974:0.121456 975:0.0287337 976:0.0226674 977:0.035808 978:0.0258991 979:0.0319958 980:0.123994 981:0.319513 982:0.137322 983:0.0539391 984:0.0106154 985:0.0312584 986:0.0409865 987:0.0415151 988:0.163698 989:0.319513 990:0.319513 991:0.319513 992:0.195603 993:0.0692221 994:0.0348673 995:0.055615 996:0.0225718 997:0.0195564 998:0.0923086 999:0.319513 1000:0.319513 1001:0.0714859 1002:0.0117395 1003:0.0439083 1004:0.0587207 1005:0.0257437 1006:0.0573685 1007:0.145765 1008:0.319513 1009:0.1257 1010:0.0486911 1011:0.00927916 1012:0.0269211 1013:0.0362537 1014:0.0334516 1015:0.122399 1016:0.305688 1017:0.33304 1018:0.0702284 1019:0.0227002 1020:0.00657173 1021:0.0076008 1022:0.00916762 1023:0.0196984 1024:0.141573 1025:0.33304 1026:0.33304 1027:0.33304 1028:0.0687538 1029:0.0113217 1030:0.0374093 1031:0.0518386 1032:0.0209424 1033:0.0434815 1034:0.114421 1035:0.33304 1036:0.33304 1037:0.00419764 1038:0.00427826 1039:0.00986622 1040:0.0108297 1041:0.0103759 1042:0.049689 1043:0.192783 1044:0.33304 1045:0.0574165 1046:0.0203468 1047:0.00545171 1048:0.00699438 1049:0.0088431 1050:0.0164974 1051:0.126616 1052:0.363785 1053:0.291202 1054:0.158727 1055:0.0118601 1056:0.00540438 1057:0.00490829 1058:0.0078541 1059:0.0201223 1060:0.043757 1061:0.219783 1062:0.363785 1063:0.337644 1064:0.00554899 1065:0.00406766 1066:0.00959013 1067:0.0109811 1068:0.009028 1069:0.0441948 1070:0.157118 1071:0.363785 1072:0.363785 1073:0.000285457 1074:0.000212833 1076:0.003311 1077:0.00744602 1078:0.0172472 1079:0.110794 1080:0.363785 1081:0.118439 1082:0.0101003 1083:0.00455618 1084:0.00372793 1085:0.00627046 1086:0.0152631 1087:0.0405692 1088:0.196689 1089:0.379385 1090:0.248796 1091:0.00652682 1092:0.00529165 1093:0.00302292 1094:0.00559283 1095:0.0134354 1096:0.0163159 1097:0.0676962 1098:0.379385 1099:0.379385 1100:0.000347123 1101:0.000398225 1103:0.0025733 1104:0.0054998 1105:0.0157917 1106:0.0985986 1107:0.379385 1108:0.379385 1109:0.000990087 1110:0.00149102 1111:9.39101e-005 1112:0.00318457 1113:0.00463572 1114:0.00483456 1115:0.0271613 1116:0.379385 1117:0.203085 1118:0.0056792 1119:0.00437338 1120:0.00274976 1121:0.00525125 1122:0.0126053 1123:0.0146443 1124:0.0603174 1125:0.373015 1126:0.338639 1127:0.00347247 1128:0.00689208 1129:0.00342867 1130:0.00179185 1131:0.00177668 1132:0.00437631 1133:0.0237218 1134:0.373015 1135:0.373015 1136:0.000730916 1137:0.001117 1138:7.34159e-005 1139:0.00281139 1140:0.00441414 1141:0.00451062 1142:0.0254326 1143:0.373015 1144:0.373015 1145:0.00213808 1146:0.00296193 1147:0.000955961 1148:0.00228774 1149:0.000199315 1150:0.000776838 1151:0.00610015 1152:0.373015 1153:0.293006 1154:0.00329894 1155:0.0060056 1156:0.00287564 1157:0.00173827 1158:0.00200543 1159:0.00428713 1160:0.0230859 1161:0.363685 1162:0.363685 1163:0.0125344 1164:0.0159624 1165:0.00519018 1166:0.00140793 1167:0.000912003 1168:0.0019373 1169:0.00699205 1170:0.339725 1171:0.363685 1172:0.00176317 1173:0.00256988 1174:0.000773525 1175:0.00212581 1176:0.000294932 1177:0.000780033 1178:0.00611434 1179:0.363685 1180:0.363685 1181:0.0161371 1182:0.00726867 1183:0.00208812 1184:0.00371309 1185:0.00298564 1187:0.000339883 1188:0.363685 1189:0.362932 1190:0.00823852 1191:0.013428 1192:0.0047159 1193:0.00131539 1194:0.000620077 1195:0.0014705 1196:0.00624767 1197:0.318414 1198:0.362932 1199:0.0840485 1200:0.0172381 1201:0.00191749 1202:0.00188755 1203:0.00497426 1204:0.00671264 1205:0.00711019 1206:0.30156 1207:0.362932 1208:0.0114183 1209:0.00604849 1210:0.00186996 1211:0.00292232 1212:0.00179175 1214:0.000424007 1215:0.362932 1216:0.362932 1217:0.0727583 1218:0.00979544 1219:0.00211665 1220:0.0103161 1221:0.0151348 1222:0.00364141 1223:0.00141165 1224:0.362932 1225:0.355901 1226:0.0638978 1227:0.0154023 1228:0.00185076 1229:0.00159177 1230:0.00384894 1231:0.00544125 1232:0.0062225 1233:0.260563 1234:0.355901 1235:0.17207 1236:0.0451826 1237:0.00120001 1238:0.0023078 1239:0.00557655 1240:0.00589877 1241:0.00439057 1242:0.331613 1243:0.355901 1244:0.0566243 1245:0.00830906 1246:0.00185365 1247:0.00847202 1248:0.0120079 1249:0.00268504 1250:0.000899406 1251:0.355901 1252:0.355901 1253:0.131252 1254:0.0373809 1255:0.00271848 1256:0.00932849 1257:0.0122424 1258:0.0050252 1259:0.00651381 1260:0.355901 1261:0.344806 1262:0.145848 1263:0.0352752 1264:0.0010046 1265:0.00172579 1266:0.0050358 1267:0.00559454 1268:0.0040187 1269:0.289228 1270:0.344806 1271:0.146018 1272:0.0777841 1273:0.00369111 1274:0.0050139 1275:0.00142075 1276:0.00101082 1277:0.0155788 1278:0.344806 1279:0.344806 1280:0.11151 1281:0.0291523 1282:0.00245995 1283:0.00817288 1284:0.0113824 1285:0.00466443 1286:0.00525174 1287:0.344806 1288:0.344806 1289:0.110446 1290:0.067132 1291:0.00126761 1292:0.00795772 1293:0.00205743 1294:0.00129256 1295:0.0102011 1296:0.344806 1297:0.34795 1298:0.135972 1299:0.070223 1300:0.00301935 1301:0.00397625 1302:0.00146522 1303:0.00114582 1304:0.0119099 1305:0.307985 1306:0.34795 1307:0.0767857 1308:0.0412019 1309:0.00771522 1310:0.00291967 1311:0.00567022 1312:0.0136652 1313:0.0406765 1314:0.34795 1315:0.34795 1316:0.102946 1317:0.0604471 1318:0.00119848 1319:0.00658445 1320:0.00199778 1321:0.0015436 1322:0.00834593 1323:0.34795 1324:0.34795 1325:0.0517231 1326:0.0366531 1327:0.00186413 1328:0.00444698 1329:0.00441017 1330:0.0161487 1331:0.0486366 1332:0.34795 1333:0.347993 1334:0.073149 1335:0.0394619 1336:0.00684799 1337:0.00304803 1338:0.0045134 1339:0.0106283 1340:0.0354226 1341:0.347993 1342:0.347993 1343:0.0475153 1344:0.0398472 1345:0.0103047 1346:0.000770174 1347:0.0140617 1348:0.0223886 1349:0.050841 1350:0.347993 1351:0.347993 1352:0.0505804 1353:0.0353067 1354:0.00156848 1355:0.00452608 1356:0.00351042 1357:0.0126866 1358:0.0396952 1359:0.347993 1360:0.347993 1361:0.021375 1362:0.0190934 1363:0.00291269 1364:0.000581023 1365:0.0111407 1366:0.0232304 1367:0.0712243 1368:0.347993 1369:0.346958 1370:0.0467753 1371:0.0374153 1372:0.00972927 1373:0.000681928 1374:0.0135965 1375:0.0225305 1376:0.0489575 1377:0.346958 1378:0.346958 1379:0.0619348 1380:0.0524395 1381:0.0165192 1382:0.00208029 1383:0.00605604 1384:0.01459 1385:0.0972817 1386:0.346958 1387:0.346958 1388:0.0222826 1389:0.0202179 1390:0.00291319 1391:0.000612947 1392:0.0107585 1393:0.0240899 1394:0.0716634 1395:0.346958 1396:0.346958 1397:0.0114592 1398:0.00615709 1399:0.0027735 1400:0.000502323 1401:0.00478235 1402:0.0076146 1403:0.0560691 1404:0.346958 
4.373499671635828 1:0.388212 2:0.0195868 3:0.00148862 4:0.028975 5:0.171227 7:0.00733127 8:0.19075 9:0.388212 10:0.388212 11:0.138555 12:0.0125749 13:0.000129888 16:0.00808176 17:0.168415 18:0.388212 19:0.0389139 20:0.0215106 21:0.00577742 22:0.0464274 23:0.328602 24:0.0411049 25:0.0480815 26:0.226046 27:0.201999 28:0.0722595 29:0.0982608 30:0.0226548 31:0.000285754 32:0.00720523 33:0.0217349 34:0.063494 35:0.194853 36:0.112068 37:0.41666 38:0.135175 39:0.0121191 40:0.000130778 43:0.00964793 44:0.196044 45:0.41666 46:0.41666 47:0.27356 48:0.0213753 49:0.00194531 50:0.00822712 51:0.0121082 52:0.0172539 53:0.0961467 54:0.41666 55:0.0703302 56:0.0945063 57:0.0218431 58:0.000287711 59:0.00895945 60:0.0255135 61:0.0745729 62:0.231177 63:0.126464 64:0.134774 65:0.118959 66:0.0352779 67:0.00286014 68:0.0113898 69:0.0212082 70:0.0555822 71:0.100382 72:0.148395 73:0.420566 74:0.276251 75:0.0211231 76:0.00164082 77:0.0071412 78:0.0101013 79:0.0149898 80:0.0955251 81:0.420566 82:0.420566 83:0.0781975 84:0.0447906 85:0.0059168 86:0.0207062 87:0.0281267 88:0.0226093 89:0.0760187 90:0.420566 91:0.129273 92:0.127897 93:0.0362647 94:0.00228978 95:0.0102946 96:0.0194613 97:0.0512233 98:0.0965933 99:0.132349 100:0.123775 101:0.0242985 102:0.0392813 103:0.0126377 104:0.0305197 105:0.0400607 106:0.0842853 107:0.138166 108:0.275091 109:0.426233 110:0.0795687 111:0.0367651 112:0.00511426 113:0.0186474 114:0.0252503 115:0.0218676 116:0.0707039 117:0.426233 118:0.426233 119:0.0613024 120:0.0596531 121:0.00648309 122:0.0213599 123:0.0145457 124:0.006419 125:0.034386 126:0.426233 127:0.106318 128:0.0259074 129:0.0335894 130:0.0102804 131:0.0269819 132:0.035864 133:0.0771956 134:0.12325 135:0.235942 136:0.231837 137:0.0387689 138:0.0443928 139:0.0154919 140:0.0182758 141:0.0240922 142:0.0442214 143:0.0874402 144:0.292581 145:0.411005 146:0.0491593 147:0.0525181 148:0.00543956 149:0.0169903 150:0.014493 151:0.00686963 152:0.0316362 153:0.411005 154:0.411005 155:0.0798152 156:0.0583462 157:0.0390116 158:0.062816 159:0.0315802 160:0.0543173 161:0.0884656 162:0.411005 163:0.191263 164:0.0320248 165:0.0403197 166:0.0135977 167:0.0163651 168:0.0234088 169:0.0432109 170:0.0825162 171:0.260125 172:0.320681 173:0.0422145 174:0.0262002 175:0.0170476 176:0.0162507 177:0.0193512 178:0.0301992 179:0.050428 180:0.245279 181:0.381162 182:0.0722011 183:0.0505447 184:0.0319575 185:0.0527827 186:0.0257013 187:0.0416558 188:0.0714321 189:0.381162 190:0.381162 191:0.0237442 192:0.0295235 193:0.0416251 194:0.0531982 195:0.0688425 196:0.120884 197:0.139338 198:0.381162 199:0.281837 200:0.0385565 201:0.0239379 202:0.0154187 203:0.0142202 204:0.0173159 205:0.0273592 206:0.0464108 207:0.217179 208:0.350684 209:0.0136836 210:0.0131058 211:0.0145344 212:0.0172245 213:0.0212868 214:0.031626 215:0.0584447 216:0.300333 217:0.372391 218:0.0242267 219:0.0296913 220:0.0409298 221:0.0493491 222:0.0594471 223:0.104737 224:0.123847 225:0.372391 226:0.372391 228:0.000668754 229:0.004965 230:0.0158931 231:0.0244803 232:0.0628146 233:0.114846 234:0.372391 235:0.304761 236:0.0135682 237:0.0126756 238:0.0140206 239:0.0154006 240:0.0195817 241:0.027773 242:0.0505936 243:0.254663 244:0.325769 245:0.00286449 246:0.00451945 247:0.00566708 248:0.0178719 249:0.0211027 250:0.0415521 251:0.0673266 252:0.335723 253:0.350285 255:0.00131299 256:0.00670147 257:0.0131009 258:0.0234435 259:0.0557233 260:0.0951024 261:0.350285 262:0.350285 263:0.0010665 264:0.000410401 265:0.000788796 266:0.0276336 267:0.00778404 268:0.197392 269:0.273304 270:0.350285 271:0.285322 272:0.00245843 273:0.00415219 274:0.00542673 275:0.0141047 276:0.0167808 277:0.029436 278:0.0548918 279:0.287989 280:0.150047 281:0.0234226 282:0.0185013 283:0.0282679 284:0.0493749 285:0.0492975 286:0.220068 287:0.206028 288:0.299318 289:0.326053 290:0.000801003 291:0.000304345 292:0.000585313 293:0.0214735 294:0.00550086 295:0.148243 296:0.213181 297:0.326053 298:0.201764 299:0.00234122 300:0.000391301 301:0.0006144 302:0.0164739 303:0.0150853 304:0.252444 305:0.304723 306:0.326053 307:0.138187 308:0.0167336 309:0.0140475 310:0.0219571 311:0.0382243 312:0.0396884 313:0.168076 314:0.159428 315:0.250543 316:0.215766 317:0.0755931 318:0.0302466 319:0.0361698 320:0.0324738 321:0.0264105 322:0.203555 323:0.261876 324:0.326053 325:0.17446 326:0.00197806 327:0.000379511 328:0.000596158 329:0.01525 330:0.0125369 331:0.223924 332:0.264031 333:0.350294 334:0.247728 335:0.000694595 336:2.53008e-005 337:2.60485e-005 338:0.00967367 339:0.00880637 340:0.0940809 341:0.156891 342:0.350294 343:0.161138 344:0.0602784 345:0.0259171 346:0.0326607 347:0.0312717 348:0.0254506 349:0.188745 350:0.224962 351:0.350294 352:0.350294 353:0.0495395 354:0.00856632 355:0.00607444 356:0.00140267 357:0.00143503 358:0.0380913 359:0.118587 360:0.350294 361:0.199727 362:0.000668351 363:4.85595e-005 364:4.99947e-005 365:0.00649886 366:0.00840036 367:0.0900944 368:0.138025 369:0.371053 370:0.269944 371:9.32161e-005 374:0.039079 375:0.0066496 376:0.0492114 377:0.0888776 378:0.371053 379:0.371053 380:0.0451439 381:0.00829584 382:0.00640547 383:0.00247756 384:0.00206398 385:0.0397841 386:0.106579 387:0.371053 388:0.371053 389:0.0137189 392:0.000376679 393:0.0012887 394:0.0137425 395:0.0528856 396:0.371053 397:0.23536 398:3.60673e-005 401:0.0303807 402:0.00504159 403:0.0436027 404:0.0802296 405:0.378668 406:0.229784 407:0.00197575 408:0.00209167 409:0.000645473 410:0.0370866 411:0.0225202 412:0.0496292 413:0.0736512 414:0.378668 415:0.378668 416:0.0124346 419:0.000145745 420:0.000904372 421:0.0121998 422:0.0479207 423:0.378668 424:0.378668 425:0.0297793 426:0.00639338 427:0.00068513 428:0.00289146 429:0.0190449 430:0.0143864 431:0.0671814 432:0.378668 433:0.184208 434:0.00122689 435:0.00141669 436:0.000474809 437:0.0305938 438:0.0156394 439:0.0403759 440:0.0572947 441:0.325021 442:0.0984977 443:0.00433294 444:0.0063712 445:0.00214185 446:0.325021 447:0.0750833 448:0.0555286 449:0.104935 450:0.325021 451:0.325021 452:0.0191277 453:0.00268861 454:0.000364562 455:0.0020144 456:0.0119045 457:0.0116922 458:0.045976 459:0.325021 460:0.325021 461:0.0745584 462:0.0932084 463:0.0351036 464:0.325021 465:0.118783 466:0.0773345 467:0.209236 468:0.325021 469:0.0625109 470:0.0336559 471:0.00849658 472:0.0739546 473:0.369386 474:0.047777 475:0.0682101 476:0.368618 477:0.333459 478:0.117765 479:0.16014 480:0.0383657 481:0.000473488 482:0.00792145 483:0.0300406 484:0.0898002 485:0.313358 486:0.190312 487:0.0613552 488:0.0163243 489:0.0139211 490:0.0550122 491:0.369386 492:0.360391 493:0.10819 494:0.155152 495:0.146745 496:0.0578735 497:0.0789222 498:0.0162569 499:0.000109266 500:0.0738774 501:0.124826 502:0.146497 503:0.145851 504:0.0796286 505:0.156149 506:0.209974 507:0.0504213 508:0.000649788 509:0.0134341 510:0.0480917 511:0.143844 512:0.367702 513:0.292605 514:0.310267 515:0.263366 516:0.0813519 517:0.00589056 518:0.0266154 519:0.0476947 520:0.11682 521:0.218135 522:0.339487 523:0.0759068 524:0.10349 525:0.021369 526:0.000149951 527:0.12268 528:0.201628 529:0.228774 530:0.228271 531:0.112437 532:0.145495 533:0.158026 534:0.0442921 535:0.0163999 536:0.073804 537:0.0801489 538:0.160728 539:0.155672 540:0.171844 541:0.281141 542:0.26951 543:0.0795506 544:0.00454814 545:0.022553 546:0.0409838 547:0.101666 548:0.200256 549:0.289243 550:0.293473 551:0.0481462 552:0.0885455 553:0.0233911 554:0.0677023 555:0.0885388 556:0.167523 557:0.278655 558:0.382051 559:0.135936 560:0.156659 561:0.0412901 562:0.0105268 563:0.0662618 564:0.0768346 565:0.141303 566:0.137156 567:0.150435 568:0.118263 569:0.0907704 570:0.0556201 571:0.101165 572:0.158645 573:0.0992486 574:0.251876 575:0.222877 576:0.201771 577:0.231368 578:0.0478774 579:0.069432 580:0.0175539 581:0.0552327 582:0.0730095 583:0.141888 584:0.229394 585:0.385376 586:0.385376 587:0.0742681 588:0.0930633 589:0.0277469 590:0.0338289 591:0.0462604 592:0.0769695 593:0.15869 594:0.385376 595:0.0919681 596:0.0761348 597:0.044899 598:0.0748211 599:0.12845 600:0.0821114 601:0.204421 602:0.17921 603:0.161488 604:0.253239 605:0.084154 606:0.047703 607:0.0827413 608:0.0955378 609:0.0721419 610:0.158661 611:0.213574 612:0.220533 613:0.383232 614:0.0572891 615:0.0795195 616:0.0227029 617:0.0288583 618:0.042603 619:0.0712089 620:0.140932 621:0.383232 622:0.383232 623:0.0772888 624:0.0512853 625:0.0332376 626:0.0271215 627:0.0355347 628:0.0558594 629:0.0912399 630:0.383232 631:0.195894 632:0.0720176 633:0.0418655 634:0.0738574 635:0.0807245 636:0.0624507 637:0.142381 638:0.179119 639:0.177951 640:0.31847 641:0.0558613 642:0.0210721 643:0.0184004 644:0.0608146 645:0.0353961 646:0.0718587 647:0.151739 648:0.253335 649:0.393654 650:0.0677392 651:0.0451099 652:0.0285739 653:0.0226764 654:0.0302084 655:0.04766 656:0.0798909 657:0.393654 658:0.393654 659:0.0221377 660:0.0228212 661:0.02752 662:0.0296324 663:0.0423435 664:0.0631545 665:0.10166 666:0.393654 667:0.268842 668:0.0499395 669:0.0196176 670:0.0194423 671:0.0521737 672:0.0325932 673:0.0650358 674:0.135896 675:0.212517 676:0.284905 677:0.0517509 678:0.0302727 679:0.0158099 680:0.0432631 681:0.0249023 682:0.0498124 683:0.0793362 684:0.310593 685:0.401237 686:0.0222218 687:0.0223747 688:0.0266199 689:0.0263906 690:0.0382617 691:0.0552878 692:0.0878889 693:0.401237 694:0.401237 695:0.00226849 696:0.00502619 697:0.00913675 698:0.0277281 699:0.0353437 700:0.074151 701:0.120532 702:0.401237 703:0.24735 704:0.043964 705:0.0244465 706:0.0130417 707:0.037804 708:0.0223793 709:0.0447308 710:0.0744922 711:0.268567 712:0.26544 713:0.0796878 714:0.0521576 715:0.0206357 716:0.043158 717:0.0421434 718:0.0486618 719:0.0403076 720:0.286613 721:0.352913 722:0.00171182 723:0.00435981 724:0.00800669 725:0.0195373 726:0.0253353 727:0.046643 728:0.0861227 729:0.352913 730:0.246281 731:0.0279197 732:0.0213631 733:0.0370091 734:0.0650588 735:0.068373 736:0.352913 737:0.341315 738:0.352913 739:0.199487 740:0.0574494 741:0.0367165 742:0.0154138 743:0.0315257 744:0.0283664 745:0.0341797 746:0.0326682 747:0.223861 748:0.214474 749:0.202728 750:0.174307 751:0.100273 752:0.0823731 753:0.100797 754:0.146139 755:0.0911218 756:0.161083 757:0.173887 758:0.0150174 759:0.0122409 760:0.0218511 761:0.0382939 762:0.0416967 763:0.205123 764:0.200778 765:0.318469 766:0.232552 767:0.0712108 768:0.0287021 769:0.0361844 770:0.0325214 771:0.0287554 772:0.2517 773:0.325225 774:0.330527 775:0.133472 776:0.117987 777:0.102027 778:0.0589181 779:0.0486953 780:0.0610143 781:0.0876338 782:0.052791 783:0.102078 784:0.330527 785:0.281438 786:0.153363 787:0.09313 788:0.0419651 789:0.0427612 790:0.102274 791:0.143207 792:0.330527 793:0.140159 794:0.0456024 795:0.0196638 796:0.0262496 797:0.025161 798:0.0222238 799:0.187407 800:0.224873 801:0.36438 802:0.36438 803:0.0378904 804:0.00672493 805:0.00489117 806:0.00112934 807:0.00140944 808:0.0387333 809:0.1172 810:0.36438 811:0.270211 812:0.185997 813:0.109871 814:0.0675963 815:0.0322828 816:0.0331617 817:0.0756346 818:0.095012 819:0.218658 820:0.36438 821:0.116322 822:0.0271907 823:0.0136926 824:0.00337834 825:0.00259057 826:0.01464 827:0.0499542 828:0.36438 829:0.287445 830:0.0289185 831:0.00544313 832:0.00432671 833:0.00167326 834:0.00165463 835:0.0338639 836:0.088386 837:0.356614 838:0.356614 839:0.00859964 842:0.000323707 843:0.00111009 844:0.0120167 845:0.0442454 846:0.356614 847:0.356614 848:0.0901117 849:0.0232863 850:0.0120257 851:0.00346827 852:0.00274141 853:0.0128269 854:0.0387609 855:0.356614 856:0.356614 857:0.0312544 858:0.00227848 859:0.00241708 860:0.00105239 861:0.000420314 862:0.00193679 863:0.0091449 864:0.356614 865:0.351336 866:0.00719465 869:0.000115717 870:0.000719721 871:0.00988754 872:0.0370293 873:0.351336 874:0.351336 875:0.0176218 876:0.00352832 877:0.00021548 878:0.00221972 879:0.0135228 880:0.0116429 881:0.050577 882:0.351336 883:0.351336 884:0.0256342 885:0.00183625 886:0.00188239 887:0.00100357 888:0.000388485 889:0.00164874 890:0.00770351 891:0.351336 892:0.351336 893:0.049217 894:0.0125322 895:0.00505713 896:0.00108939 897:0.0048822 898:0.00178551 899:0.0300933 900:0.351336 901:0.321571 902:0.0124285 903:0.00153525 904:0.000127808 905:0.00172361 906:0.00946986 907:0.0105274 908:0.0388691 909:0.321571 910:0.267078 911:0.0514216 912:0.0635424 913:0.0211573 914:0.272444 915:0.0934375 916:0.0624041 917:0.170706 918:0.321571 919:0.321571 920:0.038421 921:0.00843503 922:0.00365275 923:0.000859421 924:0.00324205 925:0.00150353 926:0.0195099 927:0.321571 928:0.321571 929:0.12854 930:0.113455 931:0.0714622 932:0.0900936 933:0.0540697 934:0.0647725 935:0.157855 936:0.321571 937:0.0557832 938:0.0175676 939:0.0136476 940:0.0531979 941:0.535497 942:0.308722 943:0.105273 944:0.166043 945:0.149374 946:0.0584215 947:0.0791345 948:0.0166255 949:0.000122638 950:0.0615918 951:0.110928 952:0.141457 953:0.154397 954:0.0795098 955:0.0312016 956:0.000679596 957:0.00342973 958:0.0495867 959:0.535497 960:0.336577 961:0.0559916 962:0.0156027 963:0.0365072 964:0.0197712 965:0.023778 966:0.0141396 967:0.0419422 968:0.158007 969:0.15688 970:0.0833707 971:0.0220678 972:0.0289117 973:0.101647 974:0.136909 975:0.0288236 976:0.000222103 977:0.135213 978:0.236378 979:0.292898 980:0.320179 981:0.14985 982:0.185781 983:0.197813 984:0.0556905 985:0.0182042 986:0.0830959 987:0.0944823 988:0.198146 989:0.207231 990:0.224147 991:0.0303419 992:0.0397289 993:0.0238583 994:0.0759769 995:0.323317 996:0.333552 997:0.166898 998:0.0410127 999:0.0503511 1000:0.146508 1001:0.188956 1002:0.124836 1003:0.141467 1004:0.235993 1005:0.136058 1006:0.140608 1007:0.0739614 1008:0.0819224 1009:0.15956 1010:0.181417 1011:0.0483038 1012:0.0106388 1013:0.0680766 1014:0.0826597 1015:0.159812 1016:0.167632 1017:0.178464 1018:0.130965 1019:0.085899 1020:0.0549639 1021:0.104086 1022:0.167258 1023:0.111978 1024:0.288829 1025:0.268509 1026:0.255298 1027:0.112356 1028:0.147446 1029:0.0968781 1030:0.116342 1031:0.19964 1032:0.120374 1033:0.109794 1034:0.0572052 1035:0.0704246 1036:0.268302 1037:0.282189 1038:0.158062 1039:0.179127 1040:0.25082 1041:0.133426 1042:0.280474 1043:0.19446 1044:0.0270574 1045:0.0900039 1046:0.0649495 1047:0.039768 1048:0.0680057 1049:0.11979 1050:0.0817571 1051:0.207829 1052:0.191753 1053:0.180722 1054:0.25582 1055:0.072572 1056:0.0421265 1057:0.0780266 1058:0.0920382 1059:0.0731606 1060:0.159104 1061:0.208159 1062:0.24148 1063:0.181782 1064:0.203351 1065:0.116623 1066:0.127913 1067:0.186397 1068:0.0976147 1069:0.190745 1070:0.126497 1071:0.0202388 1072:0.383085 1073:0.203551 1074:0.0946281 1075:0.0912972 1076:0.103646 1077:0.0843487 1078:0.213712 1079:0.383085 1080:0.0863135 1081:0.179442 1082:0.0562741 1083:0.0335165 1084:0.0630179 1085:0.0704534 1086:0.0577113 1087:0.130352 1088:0.160691 1089:0.178576 1090:0.298144 1091:0.0448121 1092:0.0172245 1093:0.0167948 1094:0.0552394 1095:0.0328007 1096:0.0634702 1097:0.117647 1098:0.237427 1099:0.312673 1100:0.159602 1101:0.0754547 1102:0.0747524 1103:0.0820158 1104:0.0643794 1105:0.169463 1106:0.309922 1107:0.0540365 1108:0.37402 1109:0.117661 1110:0.0617281 1111:0.0403183 1112:0.180785 1113:0.0560588 1114:0.100954 1115:0.37402 1116:0.291209 1117:0.221376 1118:0.0352118 1119:0.0140859 1120:0.0156122 1121:0.0418006 1122:0.0266192 1123:0.0507121 1124:0.0935473 1125:0.175457 1126:0.224791 1127:0.0355463 1128:0.0201726 1129:0.011843 1130:0.0329126 1131:0.0185324 1132:0.0369974 1133:0.0584486 1134:0.251626 1135:0.391578 1136:0.0936401 1137:0.0481028 1138:0.0280516 1139:0.121431 1140:0.0413182 1141:0.0786776 1142:0.336506 1143:0.199624 1144:0.391578 1145:0.0779643 1146:0.0770797 1147:0.064526 1148:0.285151 1149:0.090373 1150:0.0730189 1151:0.142742 1152:0.391578 1153:0.176388 1154:0.0271479 1155:0.0146723 1156:0.00880287 1157:0.0260835 1158:0.0151833 1159:0.0297374 1160:0.0482541 1161:0.195362 1162:0.168566 1163:0.0494816 1164:0.0323442 1165:0.0143123 1166:0.0315484 1167:0.0320712 1168:0.0375131 1169:0.0328708 1170:0.199098 1171:0.424247 1172:0.0613959 1173:0.0575417 1174:0.0475529 1175:0.222125 1176:0.0676717 1177:0.059476 1178:0.130804 1179:0.424247 1180:0.424247 1181:0.102883 1182:0.0843839 1183:0.0412836 1184:0.134477 1185:0.0577876 1186:0.0185501 1187:0.00615965 1188:0.424247 1189:0.131602 1190:0.0365531 1191:0.0231494 1192:0.0109656 1193:0.0232784 1194:0.0219943 1195:0.0266163 1196:0.0269039 1197:0.160376 1198:0.133143 1199:0.132665 1200:0.116454 1201:0.0727475 1202:0.068229 1203:0.0802731 1204:0.120253 1205:0.0766262 1206:0.116192 1207:0.407049 1208:0.0739466 1209:0.0630512 1210:0.0333899 1211:0.117725 1212:0.0464438 1213:0.0157891 1214:0.00838987 1215:0.407049 1216:0.407049 1217:0.282294 1218:0.246876 1219:0.127482 1220:0.0349809 1221:0.0304225 1222:0.0211131 1223:0.0140914 1224:0.407049 1225:0.0865973 1226:0.0810007 1227:0.0716432 1228:0.0451182 1229:0.0423986 1230:0.0513146 1231:0.075831 1232:0.0469437 1233:0.0763734 1234:0.335124 1235:0.205537 1236:0.109955 1237:0.0704971 1238:0.0364897 1239:0.0348962 1240:0.0867178 1241:0.119861 1242:0.306395 1243:0.335124 1244:0.174566 1245:0.153856 1246:0.0773477 1247:0.0253377 1248:0.0204065 1249:0.013121 1250:0.00824967 1251:0.335124 1252:0.335124 1253:0.28754 1254:0.241012 1255:0.143005 1256:0.0288524 1257:0.0268397 1258:0.0229596 1259:0.0307332 1260:0.32355 1261:0.231325 1262:0.154563 1263:0.0899306 1264:0.0587558 1265:0.0322475 1266:0.0310604 1267:0.0736522 1268:0.0914488 1269:0.210104 1270:0.360421 1271:0.101335 1272:0.0226052 1273:0.0110228 1274:0.00224804 1275:0.00167545 1276:0.0127554 1277:0.0467294 1278:0.360421 1279:0.360421 1280:0.227638 1281:0.197233 1282:0.116164 1283:0.0218349 1284:0.0197916 1285:0.0180667 1286:0.0231589 1287:0.24347 1288:0.360421 1289:0.110511 1290:0.0546056 1291:0.0378853 1292:0.0389451 1293:0.0309149 1294:0.0173107 1295:0.0112179 1296:0.360421 1297:0.354919 1298:0.0816053 1299:0.0201216 1300:0.010275 1301:0.00284304 1302:0.00212642 1303:0.0119673 1304:0.0378666 1305:0.354919 1306:0.354919 1307:0.0276206 1308:0.00103871 1309:0.000992381 1310:0.000432079 1311:0.000172568 1312:0.00150034 1313:0.00917752 1314:0.354919 1315:0.354919 1316:0.0898094 1317:0.0485119 1318:0.0317183 1319:0.0270101 1320:0.0225899 1321:0.0127042 1322:0.00931268 1323:0.296423 1324:0.354919 1325:0.0444768 1326:0.0148233 1327:0.0202779 1328:0.0333811 1329:0.022574 1330:0.00758925 1331:0.000730024 1332:0.354919 1333:0.35095 1334:0.0227714 1335:0.000902459 1336:0.000773284 1337:0.000412264 1338:0.000159589 1339:0.00124804 1340:0.00770246 1341:0.35095 1342:0.35095 1343:0.0435731 1344:0.0102113 1345:0.00338739 1346:0.000580035 1347:0.00494651 1348:0.00180368 1349:0.029183 1350:0.35095 1351:0.35095 1352:0.0351862 1353:0.0113872 1354:0.0160501 1355:0.0282021 1356:0.0187051 1357:0.00626221 1358:0.000600957 1359:0.35095 1360:0.35095 1361:0.0584881 1362:0.0196116 1363:0.0185792 1364:0.0220159 1365:0.011649 1366:0.0056117 1367:0.00871563 1368:0.35095 1369:0.339147 1370:0.0354375 1371:0.00672922 1372:0.00239521 1373:0.000479837 1374:0.00345451 1375:0.00159987 1376:0.019905 1377:0.339147 1378:0.339147 1379:0.122964 1380:0.11298 1381:0.0656368 1382:0.0957557 1383:0.0562106 1384:0.064464 1385:0.162407 1386:0.334606 1387:0.339147 1388:0.0507767 1389:0.0183014 1390:0.0176463 1391:0.0207574 1392:0.0110767 1393:0.00483668 1394:0.00580815 1395:0.339147 1396:0.339147 1397:0.12444 1398:0.0623558 1399:0.0469199 1400:0.039823 1401:0.0208647 1402:0.0280269 1403:0.0458648 1404:0.295694 
9.639966424494821 1:0.152634 2:0.0409066 3:0.04145 4:0.0222964 5:0.0127162 6:0.00130558 7:0.037233 8:0.374111 9:0.374111 10:0.0818847 11:0.165477 12:0.374111 13:0.135091 14:0.0378277 15:0.00954342 16:0.142064 17:0.374111 18:0.374111 19:0.0671543 20:0.0328787 21:0.0501216 22:0.04807 23:0.0411001 24:0.0206686 25:0.0571427 26:0.119528 27:0.124061 28:0.0657532 29:0.04892 30:0.131619 31:0.0861449 32:0.062393 33:0.034049 34:0.106805 35:0.287316 36:0.133217 37:0.0686437 38:0.122053 39:0.29649 40:0.10747 41:0.0314606 42:0.00786721 43:0.122045 44:0.382962 45:0.355457 46:0.129771 47:0.382962 48:0.382962 49:0.208121 50:0.0673527 51:0.0112512 52:0.0589889 53:0.20996 54:0.11569 55:0.0558921 56:0.04055 57:0.104082 58:0.0684318 59:0.0512802 60:0.0278403 61:0.0915896 62:0.255641 63:0.12022 64:0.0300096 65:0.0386371 66:0.135531 67:0.115034 68:0.101306 69:0.020839 70:0.042591 71:0.0944284 72:0.0419738 73:0.122488 74:0.373477 75:0.373477 76:0.221899 77:0.0674394 78:0.00967249 79:0.0652021 80:0.251077 81:0.130517 82:0.373477 83:0.373477 84:0.204425 85:0.0929516 86:0.213678 87:0.0645057 88:0.0160163 89:0.0436346 90:0.314149 91:0.0345159 92:0.0433365 93:0.152201 94:0.125147 95:0.106067 96:0.0230114 97:0.0472284 98:0.111127 99:0.0498696 100:0.0282629 101:0.00401238 102:0.0189889 103:0.0299733 104:0.0683359 105:0.0210855 106:0.0141061 107:0.0227641 108:0.0732892 109:0.306812 110:0.36543 111:0.204768 112:0.0842861 113:0.162969 114:0.0473469 115:0.011979 116:0.0351179 117:0.217608 118:0.458602 119:0.0290855 120:0.0426652 121:0.0733875 122:0.211383 123:0.0554323 124:0.0273675 125:0.0681645 126:0.458602 127:0.0174309 128:0.00526195 129:0.0246369 130:0.0308532 131:0.0566358 132:0.016075 133:0.00980572 134:0.016973 135:0.0493134 136:0.198816 138:0.00903478 139:0.0154857 140:0.0542284 141:0.0439664 142:0.0625562 143:0.0450548 144:0.317031 145:0.437953 146:0.0259211 147:0.0263768 148:0.0479635 149:0.144908 150:0.0384284 151:0.0170067 152:0.0438255 153:0.437953 154:0.437953 155:0.00272629 156:0.0109824 157:0.0132268 158:0.025465 159:0.00936136 160:0.0128288 161:0.0205388 162:0.437953 163:0.109214 165:0.00539698 166:0.00993979 167:0.0361313 168:0.0269736 169:0.0359833 170:0.0281102 171:0.180177 172:0.27514 173:0.00129886 174:0.00485973 175:0.00947051 176:0.0236997 177:0.040884 178:0.0482242 179:0.0143465 180:0.263091 181:0.44025 182:0.00198131 183:0.009903 184:0.0123616 185:0.0276952 186:0.00943466 187:0.0105496 188:0.0172293 189:0.44025 190:0.44025 191:0.00626615 192:0.0011435 193:0.00803197 194:0.0290473 195:0.0276641 196:0.0156726 197:0.0259028 198:0.44025 199:0.216831 200:0.000822554 201:0.00390542 202:0.00722096 203:0.0197345 204:0.0334532 205:0.040844 206:0.0129502 207:0.21689 208:0.29559 209:0.00342484 210:0.0029634 211:0.0166388 212:0.0273075 213:0.0496273 214:0.0320614 215:0.00647944 216:0.163569 217:0.431113 218:0.00566588 219:0.00113237 220:0.00734566 221:0.0257165 222:0.0244551 223:0.013931 224:0.0237865 225:0.431113 226:0.431113 227:0.0448032 228:0.0522612 229:0.0808276 230:0.0755636 231:0.064618 232:0.0581898 233:0.0511801 234:0.431113 235:0.285522 236:0.0031725 237:0.00310462 238:0.0157554 239:0.0262258 240:0.0468257 241:0.0313399 242:0.00639268 243:0.164357 244:0.283486 245:0.0102189 246:0.00762146 247:0.0267147 248:0.0447751 249:0.0291884 250:0.029626 251:0.00611935 252:0.158963 253:0.391589 254:0.0365304 255:0.0423066 256:0.0686045 257:0.0668189 258:0.0583987 259:0.0496914 260:0.0437204 261:0.391589 262:0.391589 263:0.0475767 264:0.0621918 265:0.131632 266:0.078203 267:0.0799773 268:0.0919811 269:0.0604586 270:0.391589 271:0.259269 272:0.0084679 273:0.00625074 274:0.0239358 275:0.0399568 276:0.0297858 277:0.0280531 278:0.00561889 279:0.140301 280:0.383917 281:0.0354683 282:0.017279 283:0.0371258 284:0.0300491 285:0.00982257 286:0.0311996 287:0.0157401 288:0.266661 289:0.384081 290:0.0461056 291:0.0599618 292:0.120423 293:0.0689211 294:0.0709031 295:0.0822008 296:0.0550006 297:0.384081 298:0.384081 299:0.0216207 300:0.00974166 301:0.0254181 302:0.0235022 303:0.0238854 304:0.024686 305:0.0180248 306:0.384081 307:0.316844 308:0.0290692 309:0.0148394 310:0.0335996 311:0.029551 312:0.00825241 313:0.0277526 314:0.0126138 315:0.219384 316:0.384081 317:0.0322907 318:0.00561621 319:0.00775375 320:0.0101896 321:0.0245831 322:0.0190187 323:0.0121154 324:0.246146 325:0.410912 326:0.023195 327:0.0135068 328:0.0299575 329:0.024473 330:0.0251592 331:0.0274394 332:0.0204698 333:0.410912 334:0.410912 335:0.0275615 336:0.00196249 338:0.00448739 339:0.00130371 340:0.00749368 341:0.0178714 342:0.410912 343:0.380604 344:0.0327274 345:0.00602959 346:0.00883324 347:0.0105842 348:0.0222894 349:0.0189785 350:0.0127822 351:0.240162 352:0.261095 353:0.00962304 356:0.011413 357:0.0181098 358:0.00870351 359:0.00359921 360:0.204089 361:0.430051 362:0.0272092 363:0.00206374 365:0.00384788 366:0.00125149 367:0.00474867 368:0.0141302 369:0.430051 370:0.430051 371:0.010209 372:0.000539908 373:0.000837785 374:0.0184926 375:0.00912468 376:0.120094 377:0.159461 378:0.430051 379:0.255952 380:0.0103442 383:0.0112542 384:0.0181748 385:0.00870274 386:0.00387404 387:0.191039 388:0.176104 389:0.00375232 390:0.00131614 391:0.0125668 392:0.0134511 393:0.00266478 394:0.00351347 395:0.0167463 396:0.283258 397:0.348768 398:0.00784883 399:0.000405239 400:0.000449081 401:0.0110809 402:0.00478186 403:0.0677302 404:0.090241 405:0.389781 406:0.298646 407:0.00109147 408:0.000115424 409:0.00321106 410:0.0218624 411:0.0296519 412:0.218753 413:0.389781 414:0.389781 415:0.117724 416:0.00264426 417:0.00077061 418:0.00673622 419:0.00798848 420:0.00203395 421:0.00263437 422:0.00930585 423:0.180671 424:0.246068 425:0.0019087 426:0.000990785 427:0.0481659 428:0.0587083 429:0.000269332 430:0.00298055 431:0.0485465 432:0.389781 433:0.180557 434:0.000664976 435:8.24735e-005 436:0.00175366 437:0.0132515 438:0.0164696 439:0.128701 440:0.234241 441:0.352066 442:0.189389 443:0.0307779 444:0.051979 445:0.0243751 446:0.0361213 447:0.0353748 448:0.200888 449:0.352066 450:0.352066 451:0.13721 452:0.000796099 453:0.000696264 454:0.0263049 455:0.0302074 456:7.26118e-005 457:0.00138125 458:0.0265989 459:0.24081 460:0.245387 461:0.126273 462:0.165661 463:0.143772 464:0.163094 465:0.041568 466:0.211511 467:0.191585 468:0.352066 469:0.0876807 470:0.0407589 471:0.0638827 472:0.057209 473:0.0445076 474:0.022239 475:0.0596089 476:0.164096 477:0.169464 478:0.0766927 479:0.0545215 480:0.175407 481:0.113383 482:0.0713139 483:0.0343973 484:0.137066 485:0.355548 486:0.179924 487:0.242796 488:0.0958046 489:0.0237535 490:0.0206074 491:0.0353744 492:0.0373392 493:0.219392 494:0.34807 495:0.355548 496:0.337923 497:0.268082 498:0.0827209 499:0.0158996 500:0.0980404 501:0.171653 502:0.150679 503:0.100343 504:0.221994 505:0.0828379 506:0.0568252 507:0.17519 508:0.114012 509:0.0742935 510:0.0358742 511:0.149204 512:0.392283 513:0.205772 514:0.0442723 515:0.0677528 516:0.245901 517:0.19286 518:0.149426 519:0.0251603 520:0.0679117 521:0.155908 522:0.0715151 523:0.392283 524:0.300876 525:0.089154 526:0.0170251 527:0.100896 528:0.17095 529:0.150489 530:0.117361 531:0.277063 532:0.103989 533:0.116241 534:0.0447623 535:0.0143929 536:0.187019 537:0.228924 538:0.175508 539:0.0651276 540:0.0399208 541:0.0759631 542:0.111258 543:0.409904 544:0.313753 545:0.23343 546:0.040892 547:0.112468 548:0.275136 549:0.126863 550:0.0869643 551:0.0160416 552:0.0590211 553:0.0783021 554:0.171272 555:0.05182 556:0.033223 557:0.0551561 558:0.187217 559:0.18893 560:0.20172 561:0.0732917 562:0.0234649 563:0.297131 564:0.386077 565:0.292871 566:0.110952 567:0.072017 568:0.0888464 569:0.0570956 570:0.032353 571:0.0119391 572:0.119494 573:0.0716273 574:0.0489677 575:0.0181068 576:0.0595065 577:0.0466262 578:0.0156802 579:0.0612991 580:0.0674484 581:0.118632 582:0.0326954 583:0.0195625 584:0.034715 585:0.106084 586:0.468649 588:0.0208499 589:0.0359251 590:0.117835 591:0.0838462 592:0.116912 593:0.0913221 594:0.495665 595:0.0458199 596:0.0336494 597:0.0216622 598:0.00846074 599:0.0895811 600:0.0681948 601:0.0418927 602:0.0102454 603:0.0334903 604:0.495665 605:0.176461 606:0.042172 607:0.00820122 608:0.074057 609:0.0937304 610:0.0826982 611:0.125974 612:0.333615 613:0.206964 615:0.0100328 616:0.0185455 617:0.0632014 618:0.041521 619:0.0540029 620:0.0456302 621:0.317918 622:0.415168 623:0.00208727 624:0.00777173 625:0.0147864 626:0.0349383 627:0.0572353 628:0.0683496 629:0.0223408 630:0.415168 631:0.284064 632:0.0817879 633:0.0217563 634:0.00415287 635:0.0378006 636:0.0450231 637:0.0376229 638:0.054769 639:0.144281 640:0.415168 641:0.066402 642:0.00941954 643:0.0102713 644:0.0432392 645:0.0745731 646:0.0590763 647:0.0964022 648:0.415168 649:0.316996 650:0.00105854 651:0.00513498 652:0.00922369 653:0.0239497 654:0.0381355 655:0.0470349 656:0.0164187 657:0.31737 658:0.386743 659:0.00466194 660:0.00352266 661:0.0209278 662:0.0334797 663:0.0569426 664:0.0351663 665:0.00700754 666:0.25059 667:0.386743 668:0.0479917 669:0.00650647 670:0.00630746 671:0.0289597 672:0.0482367 673:0.0384379 674:0.0662978 675:0.319986 676:0.386743 677:0.005816 678:0.00360335 679:0.0101234 680:0.0219891 681:0.0623069 682:0.0573301 683:0.0386046 684:0.386743 685:0.352044 686:0.00370238 687:0.00315874 688:0.016965 689:0.027559 690:0.0463028 691:0.0296572 692:0.0060288 693:0.216227 694:0.339755 695:0.0136444 696:0.0114022 697:0.0291144 698:0.0457044 699:0.0299767 700:0.0279185 701:0.00520015 702:0.19704 703:0.399495 704:0.00608986 705:0.00331423 706:0.00890334 707:0.0195425 708:0.0501287 709:0.0461883 710:0.0310948 711:0.399495 712:0.399495 713:0.00312865 714:0.00310155 715:0.0145852 716:0.0397545 717:0.0316784 718:0.0980784 719:0.0709262 720:0.399495 721:0.284581 722:0.0102884 723:0.0084966 724:0.0237901 725:0.0373893 726:0.0277556 727:0.0240116 728:0.0042781 729:0.160921 730:0.389939 731:0.0332 732:0.0192273 733:0.0364479 734:0.026393 735:0.00874376 736:0.0284 737:0.0138185 738:0.268026 739:0.396062 740:0.00221761 741:0.0023468 742:0.0116521 743:0.0313052 744:0.029645 745:0.0789568 746:0.0524017 747:0.396062 748:0.396062 749:0.0268048 750:0.00816839 751:0.0213743 752:0.0412952 753:0.0107407 754:0.0762657 755:0.0993449 756:0.396062 757:0.333622 758:0.0287308 759:0.01755 760:0.0340479 761:0.0267976 762:0.00774797 763:0.0258846 764:0.011395 765:0.228546 766:0.384646 767:0.0280168 768:0.00544737 769:0.0078572 770:0.00880113 771:0.0211335 772:0.017924 773:0.0109693 774:0.25654 775:0.384646 776:0.0217799 777:0.00701498 778:0.0199668 779:0.0399941 780:0.00980071 781:0.0756304 782:0.0865791 783:0.384646 784:0.384646 785:0.0327517 786:0.00318863 787:0.00460773 788:0.0125233 789:0.0175499 790:0.016234 791:0.0605532 792:0.384646 793:0.388039 794:0.0312218 795:0.00664883 796:0.00974396 797:0.00995647 798:0.0208589 799:0.019411 800:0.0125403 801:0.271814 802:0.320689 803:0.00899375 806:0.0106794 807:0.0169478 808:0.00868302 809:0.00394674 810:0.247544 811:0.388039 812:0.0356776 813:0.00360037 814:0.00571419 815:0.0149267 816:0.0176035 817:0.0219149 818:0.0678202 819:0.388039 820:0.38079 821:0.0115634 824:0.00842103 825:0.0131816 826:0.00494763 827:0.0270739 828:0.388039 829:0.346055 830:0.0106762 833:0.0116277 834:0.0187829 835:0.00963416 836:0.00457841 837:0.253738 838:0.233366 839:0.00387276 840:0.00136017 841:0.0129872 842:0.013901 843:0.00275393 844:0.00397602 845:0.0273625 846:0.387942 847:0.387942 848:0.0137266 851:0.00931503 852:0.0146089 853:0.00534395 854:0.028697 855:0.387942 856:0.387942 857:0.0336417 858:0.00267976 859:0.0101011 860:0.0108119 861:0.00214194 862:0.00368407 863:0.0211693 864:0.387942 865:0.177029 866:0.00307506 867:0.000897336 868:0.00784398 869:0.00930217 870:0.00236843 871:0.00331576 872:0.0169017 873:0.28513 874:0.335093 875:0.00237427 876:0.00115372 877:0.0560867 878:0.0683587 879:0.000411515 880:0.00487709 881:0.0979136 882:0.385846 883:0.380787 884:0.0225018 885:0.00176951 886:0.00610087 887:0.00723502 888:0.00184211 889:0.00293059 890:0.0161203 891:0.385846 892:0.385846 893:0.082389 894:0.0072198 895:0.0443716 896:0.0535396 897:2.74343e-005 898:0.00259291 899:0.0161705 900:0.385846 901:0.151191 902:0.000780315 903:0.000651832 904:0.0246262 905:0.0282788 906:8.91961e-005 907:0.00181456 908:0.0434994 909:0.283785 910:0.261166 911:0.130077 912:0.173089 913:0.136127 914:0.160253 915:0.0447223 916:0.219908 917:0.221248 918:0.299597 919:0.299597 920:0.0355519 921:0.00325594 922:0.019316 923:0.0220752 924:5.94641e-006 925:0.00137062 926:0.00726983 927:0.189816 928:0.299597 929:0.278991 930:0.215412 931:0.199112 932:0.170735 933:0.0596553 934:0.209271 935:0.109987 936:0.26781 937:0.126241 938:0.0496084 939:0.0150175 940:0.0135195 941:0.0235181 942:0.023019 943:0.117293 944:0.175518 945:0.217969 946:0.176087 947:0.141411 948:0.0462307 949:0.0110491 950:0.0561341 951:0.0913123 952:0.074839 953:0.0534603 954:0.110302 955:0.246839 956:0.0528352 957:0.00559336 958:0.000841781 959:0.0190896 960:0.00491895 961:0.123247 962:0.355386 963:0.355386 964:0.341929 965:0.129265 966:0.0236827 967:0.00449131 968:0.0465024 969:0.137674 970:0.331556 971:0.275003 972:0.355386 973:0.192864 974:0.147681 975:0.0464295 976:0.0108885 977:0.0540163 978:0.0850198 979:0.0701506 980:0.0577616 981:0.128481 982:0.0506226 983:0.0593838 984:0.0242398 985:0.0100848 986:0.099514 987:0.112114 988:0.0729694 989:0.0325832 990:0.0186416 991:0.364295 992:0.138614 993:0.0239777 994:0.00439357 995:0.0460089 996:0.128294 997:0.307426 998:0.277121 999:0.364295 1000:0.105711 1001:0.0425055 1002:0.0111947 1003:0.00852352 1004:0.0809453 1005:0.193783 1006:0.364295 1007:0.364295 1008:0.257617 1009:0.0710821 1010:0.0794586 1011:0.0307264 1012:0.0128703 1013:0.121966 1014:0.14593 1015:0.0946486 1016:0.0429981 1017:0.0260054 1018:0.0310098 1019:0.0222738 1020:0.0126926 1021:0.00488975 1022:0.0465471 1023:0.0258616 1024:0.0151928 1025:0.00640916 1026:0.0178082 1027:0.138071 1028:0.057414 1029:0.0137665 1030:0.00964899 1031:0.0971535 1032:0.248883 1033:0.399063 1034:0.399063 1035:0.309596 1036:0.318619 1037:0.047453 1038:0.026945 1039:0.0111095 1040:0.121966 1041:0.0844925 1042:0.177383 1043:0.324175 1044:0.399063 1045:0.0188012 1046:0.015679 1047:0.0102112 1048:0.00434919 1049:0.0415454 1050:0.0294865 1051:0.0149504 1052:0.00424052 1053:0.0118004 1054:0.281016 1055:0.0810277 1056:0.0193775 1057:0.00379247 1058:0.0333661 1059:0.0444578 1060:0.0423516 1061:0.0543625 1062:0.123621 1063:0.220814 1064:0.0315516 1065:0.0206061 1066:0.00876311 1067:0.0965918 1068:0.0810057 1069:0.175544 1070:0.301191 1071:0.345468 1072:0.481725 1073:0.178261 1074:0.0420313 1075:0.0071113 1076:0.118246 1077:0.0882565 1078:0.0662797 1079:0.22702 1080:0.481725 1081:0.116799 1082:0.0364033 1083:0.00968635 1084:0.00185406 1085:0.0164118 1086:0.0204842 1087:0.0185834 1088:0.0229216 1089:0.0516489 1090:0.366041 1091:0.0295826 1092:0.00431236 1093:0.00492623 1094:0.0204535 1095:0.0370279 1096:0.0308098 1097:0.0401466 1098:0.197703 1099:0.447907 1100:0.0800873 1101:0.021183 1102:0.00381789 1103:0.0604968 1104:0.0443923 1105:0.0299376 1106:0.100183 1107:0.372379 1108:0.447907 1109:0.0646753 1110:0.00553696 1111:0.00209551 1112:0.0288395 1113:0.0185325 1114:0.0304135 1115:0.166153 1116:0.447907 1117:0.22125 1118:0.0205166 1119:0.00284466 1120:0.00287675 1121:0.0130444 1122:0.0229449 1123:0.0192888 1124:0.0264774 1125:0.115877 1126:0.301069 1127:0.00250416 1128:0.00163774 1129:0.00500249 1130:0.0107579 1131:0.0302835 1132:0.02729 1133:0.0154235 1134:0.258881 1135:0.4339 1136:0.0449104 1137:0.00403716 1138:0.00141736 1139:0.0204428 1140:0.0127785 1141:0.0187143 1142:0.109612 1143:0.4339 1144:0.4339 1145:0.0142453 1146:0.00073513 1147:0.00243883 1148:0.0106358 1149:0.00727798 1150:0.0174839 1151:0.0512791 1152:0.4339 1153:0.239833 1154:0.00248536 1155:0.00142697 1156:0.00412289 1157:0.00900867 1158:0.0231463 1159:0.0209719 1160:0.0119209 1161:0.196411 1162:0.206257 1163:0.00157634 1164:0.00154074 1165:0.00739935 1166:0.0164478 1167:0.0137752 1168:0.0352281 1169:0.0244805 1170:0.344584 1171:0.412919 1172:0.00836571 1173:0.000629258 1174:0.00191508 1175:0.008487 1176:0.0055486 1177:0.0141703 1178:0.0391517 1179:0.412919 1180:0.412919 1181:0.0860309 1182:0.062258 1183:0.0741341 1184:0.0886329 1185:0.0113459 1186:0.118033 1187:0.110927 1188:0.412919 1189:0.184847 1190:0.00117488 1191:0.00121721 1192:0.00622175 1193:0.0136704 1194:0.0136824 1195:0.0304774 1196:0.0192325 1197:0.29193 1198:0.191772 1199:0.0141948 1200:0.00433769 1201:0.0113262 1202:0.0155942 1203:0.0040816 1204:0.0285742 1205:0.0347624 1206:0.376787 1207:0.376787 1208:0.0661083 1209:0.0481244 1210:0.0589546 1211:0.0708967 1212:0.00983589 1213:0.0920402 1214:0.0804575 1215:0.376787 1216:0.329502 1217:0.0832663 1218:0.0708004 1219:0.103197 1220:0.126241 1221:0.0147719 1222:0.116517 1223:0.27698 1224:0.376787 1225:0.178753 1226:0.0123726 1227:0.00399594 1228:0.0113494 1229:0.0164547 1230:0.00391428 1231:0.0299618 1232:0.032567 1233:0.35616 1234:0.213096 1235:0.0185961 1236:0.00181634 1237:0.00261909 1238:0.00554925 1239:0.0096118 1240:0.00834496 1241:0.0205311 1242:0.325352 1243:0.332567 1244:0.0874504 1245:0.0757122 1246:0.106506 1247:0.128851 1248:0.0149082 1249:0.12573 1250:0.2476 1251:0.35616 1252:0.283728 1253:0.0126971 1254:0.0090084 1255:0.0187267 1256:0.0342812 1257:0.00339519 1258:0.0288758 1259:0.341737 1260:0.35616 1261:0.23168 1262:0.0211621 1263:0.00214246 1264:0.00339305 1265:0.00683816 1266:0.00998157 1267:0.0109144 1268:0.0242496 1269:0.362522 1270:0.184021 1271:0.00685726 1274:0.00498673 1275:0.00782717 1276:0.002955 1277:0.00878757 1278:0.291078 1279:0.3004 1280:0.0178134 1281:0.0159705 1282:0.0269489 1283:0.0437632 1284:0.00439849 1285:0.040709 1286:0.37909 1287:0.381815 1288:0.334582 1289:0.00188097 1292:0.0131799 1294:0.0133375 1295:0.219672 1296:0.381815 1297:0.205584 1298:0.00860872 1301:0.00581561 1302:0.00917412 1303:0.00337745 1304:0.00971959 1305:0.326025 1306:0.260297 1307:0.0138843 1308:0.00105457 1309:0.00634334 1310:0.00678969 1311:0.0013451 1312:0.0022237 1313:0.0106207 1314:0.234934 1315:0.357857 1316:0.00126108 1319:0.0149287 1321:0.0166029 1322:0.257444 1323:0.41268 1324:0.41268 1325:0.111832 1326:0.00846033 1328:0.00989105 1330:0.000461901 1331:0.0724099 1332:0.41268 1333:0.209833 1334:0.0106659 1335:0.000786659 1336:0.0043296 1337:0.00513446 1338:0.00130729 1339:0.00200982 1340:0.00883861 1341:0.207541 1342:0.402505 1343:0.0381427 1344:0.00235589 1345:0.0311614 1346:0.0379426 1347:3.86259e-005 1348:0.001724 1349:0.0113984 1350:0.245879 1351:0.402505 1352:0.0818063 1353:0.00617577 1355:0.00870141 1357:0.000656188 1358:0.0719117 1359:0.402505 1360:0.402505 1361:0.30187 1362:0.0803102 1363:0.00324281 1364:0.011372 1366:0.000364007 1367:0.00408262 1368:0.293974 1369:0.290881 1370:0.0216755 1371:0.00149536 1372:0.0184173 1373:0.0211423 1374:1.1307e-005 1375:0.00121641 1376:0.00690671 1377:0.153647 1378:0.331473 1379:0.214241 1380:0.168039 1381:0.16203 1382:0.150221 1383:0.0515689 1384:0.193221 1385:0.103666 1386:0.23383 1387:0.331473 1388:0.186661 1389:0.0457052 1390:0.00099988 1391:0.00705249 1393:0.000252889 1394:0.00386685 1395:0.207094 1396:0.331473 1397:0.331473 1398:0.300606 1399:0.163559 1400:0.084829 1401:0.0149589 1402:0.0259045 1403:0.00966022 1404:0.118765 
25.77421650383964 1:0.266167 2:0.151615 3:0.0577696 4:0.0169676 5:0.00685627 6:0.000173916 7:0.0112793 8:0.0524424 9:0.185621 10:0.144242 11:0.0324184 12:0.0142715 13:0.0374277 14:0.101821 15:0.000859421 16:0.0847289 17:0.237699 18:0.261301 19:0.266167 20:0.266167 21:0.181764 22:0.0904062 23:0.0889398 24:0.0773593 25:0.0997001 26:0.166743 27:0.266167 28:0.266167 29:0.266167 30:0.184595 31:0.0405386 32:0.0972787 33:0.0163563 34:0.250004 35:0.266167 36:0.266167 37:0.128264 38:0.0294947 39:0.00832349 40:0.0186754 41:0.0568187 42:0.000577605 43:0.0615514 44:0.180518 45:0.225068 46:0.187065 47:0.127868 48:0.0926052 49:0.199276 50:0.261856 51:0.00428258 52:0.0404424 53:0.106201 54:0.0707233 55:0.261856 56:0.258139 57:0.133069 58:0.0237904 59:0.0530926 60:0.00799035 61:0.178321 62:0.261856 63:0.261856 64:0.139141 65:0.219187 66:0.184268 67:0.182492 68:0.261856 69:0.0873355 70:0.221963 71:0.261856 72:0.221951 73:0.16317 74:0.115634 75:0.0839413 76:0.181989 77:0.284932 78:0.00400408 79:0.0466787 80:0.123377 81:0.0824232 82:0.284932 83:0.208505 84:0.0961799 85:0.151908 86:0.284932 87:0.0115979 88:0.00445494 89:0.00600286 90:0.0642983 91:0.147214 92:0.23718 93:0.186924 94:0.167598 95:0.284932 96:0.0788438 97:0.229963 98:0.284932 99:0.248503 100:0.0869394 101:0.0712202 102:0.102686 103:0.150055 104:0.284932 105:0.0781359 106:0.0837506 107:0.0428525 108:0.0555146 109:0.376221 110:0.272866 111:0.133226 112:0.21774 113:0.376221 114:0.0120523 115:0.00441443 116:0.0117775 117:0.0741674 118:0.376221 119:0.211858 120:0.0449688 121:0.0441416 122:0.0639779 123:0.0419478 124:0.114215 125:0.0789321 126:0.195789 127:0.115644 128:0.101968 129:0.141312 130:0.212102 131:0.376221 132:0.107366 133:0.113478 134:0.0704225 135:0.0800124 136:0.0848465 137:0.0626991 138:0.053543 139:0.0461053 140:0.0611669 141:0.0416836 142:0.111428 143:0.0932321 144:0.071633 145:0.339836 146:0.138919 147:0.0318979 148:0.0320244 149:0.045749 150:0.0258301 151:0.0680427 152:0.0387329 153:0.123058 154:0.339836 155:0.323184 156:0.0614585 157:0.0513322 158:0.0434354 159:0.0216204 160:0.145047 161:0.312695 162:0.320057 163:0.0527837 164:0.0356126 165:0.0365516 166:0.0338859 167:0.0522909 168:0.0280878 169:0.0684504 170:0.0478544 171:0.0423869 172:0.292004 173:0.177183 174:0.0503184 175:0.0330983 176:0.0277314 177:0.0214999 178:0.120229 179:0.339836 180:0.339836 181:0.353481 182:0.184273 183:0.0365017 184:0.0328904 185:0.0301098 186:0.0149802 187:0.0919918 188:0.175076 189:0.182738 190:0.353481 191:0.272548 192:0.0169164 193:0.0082248 194:0.00423732 195:0.0014983 196:0.026805 197:0.157332 198:0.328852 199:0.155413 200:0.0989957 201:0.0308304 202:0.0215165 203:0.0188923 204:0.0145787 205:0.07644 206:0.190979 207:0.208528 208:0.353481 209:0.130671 210:0.0136239 211:0.00625848 212:0.00543659 213:0.00754157 214:0.0247023 215:0.196622 216:0.353481 217:0.350218 218:0.204858 219:0.0138885 220:0.00726362 221:0.00482289 222:0.00137025 223:0.0237488 224:0.132692 225:0.246197 226:0.350218 227:0.247291 228:0.0201506 229:0.0136165 230:0.0268274 231:0.00818515 232:0.00353802 233:0.0187179 234:0.169163 235:0.350218 236:0.10132 237:0.011069 238:0.00527388 239:0.00493584 240:0.00557289 241:0.0211683 242:0.161532 243:0.350218 244:0.350218 245:0.112309 246:0.003844 247:0.00154539 248:0.00377075 249:0.00839327 250:0.00620623 251:0.0484907 252:0.344369 253:0.377349 254:0.26036 255:0.019066 256:0.0129175 257:0.0254394 258:0.00778813 259:0.00349343 260:0.0247257 261:0.190396 262:0.377349 263:0.259518 264:0.0393461 265:0.0395263 266:0.0669193 267:0.0188112 268:0.00736905 269:0.0130904 270:0.112986 271:0.377349 272:0.116838 273:0.00419648 274:0.00176539 275:0.0039644 276:0.00896107 277:0.00621482 278:0.0588315 279:0.377349 280:0.377349 281:0.165618 282:0.00945109 283:0.0150237 284:0.0569541 285:0.00948593 286:0.0223745 287:0.0484434 288:0.197214 289:0.362517 290:0.262705 291:0.0405288 292:0.0383919 293:0.0659442 294:0.0187893 295:0.00751745 296:0.0139801 297:0.114492 298:0.362517 299:0.268369 300:0.0127496 301:0.0173645 302:0.0306039 303:0.00634032 304:0.00186954 305:0.0040392 306:0.0922154 307:0.362517 308:0.156638 309:0.0090471 310:0.0110396 311:0.0486644 312:0.0090459 313:0.0192512 314:0.0441038 315:0.202069 316:0.362517 317:0.342744 318:0.0259391 319:0.0568577 320:0.122976 321:0.00763819 322:0.0527008 323:0.187531 324:0.231693 325:0.345564 326:0.191992 327:0.0112351 328:0.0140031 329:0.0253705 330:0.00549114 331:0.00165089 332:0.00370154 333:0.0679372 334:0.345564 335:0.282998 336:0.0012691 337:0.00174048 338:0.00297448 339:0.0012218 341:0.00147223 342:0.0976155 343:0.345564 344:0.23488 345:0.018261 346:0.0387619 347:0.0914031 348:0.00615366 349:0.0378378 350:0.124865 351:0.159302 352:0.345564 353:0.345564 354:0.013555 355:0.02647 356:0.0317243 357:0.00163921 358:0.0166101 359:0.19486 360:0.345564 361:0.345827 362:0.218048 363:0.00115869 364:0.0015811 365:0.00278253 366:0.000873826 368:0.00120261 369:0.0730509 370:0.345827 371:0.266361 372:0.00012816 373:3.20162e-005 374:0.000826362 375:0.00101625 377:0.00201524 378:0.0929146 379:0.345827 380:0.294914 381:0.0122701 382:0.0240185 383:0.0292242 384:0.00131559 385:0.014883 386:0.157255 387:0.291917 388:0.345827 389:0.239481 390:0.000708718 391:0.000480244 392:0.000312441 393:0.000790415 395:0.100029 396:0.345827 397:0.367734 398:0.249173 399:0.000144237 400:6.93764e-005 401:0.000793458 402:0.00110851 404:0.0017838 405:0.0870952 406:0.367734 407:0.320317 408:0.00148037 410:0.00112084 411:7.3901e-005 412:0.000433821 413:0.00322897 414:0.0819936 415:0.367734 416:0.235397 417:0.00150493 418:0.00104065 419:0.000290839 420:0.000862178 422:0.100948 423:0.339947 424:0.367734 425:0.183492 426:0.000341624 428:0.00119559 429:5.74785e-005 430:0.000338997 431:0.0558174 432:0.241737 433:0.376983 434:0.337213 435:0.00141807 437:0.00125026 438:0.000180845 439:0.000223512 440:0.00273324 441:0.0878482 442:0.376983 443:0.340617 444:0.0393744 445:0.0568629 446:0.0806836 447:0.0490853 448:0.0195229 449:0.0362543 450:0.0970227 451:0.376983 452:0.199003 453:0.000327248 455:0.00118149 456:0.000140657 457:0.000312219 458:0.063604 459:0.269655 460:0.376983 461:0.170412 462:0.0149192 463:0.0154801 464:0.0110128 465:0.00158478 466:0.0010735 467:0.0283027 468:0.136767 469:0.258181 470:0.223463 471:0.129234 472:0.0604231 473:0.0561046 474:0.0486338 475:0.0666849 476:0.117165 477:0.224649 478:0.216668 479:0.214138 480:0.120223 481:0.0298734 482:0.0725178 483:0.0104704 484:0.179245 485:0.258181 486:0.258181 487:0.258181 488:0.131907 489:0.061438 490:0.0330301 491:0.0457059 492:0.0674824 493:0.110684 494:0.258181 495:0.258181 496:0.258181 497:0.258181 498:0.191603 499:0.00859989 500:0.0887851 501:0.03681 502:0.0905118 503:0.138545 504:0.243936 505:0.202881 506:0.183792 507:0.0940387 508:0.0187668 509:0.0427496 510:0.00554952 511:0.139155 512:0.254849 513:0.254849 514:0.104763 515:0.161162 516:0.138164 517:0.150173 518:0.254849 519:0.0613574 520:0.164519 521:0.235823 522:0.165881 523:0.254849 524:0.254849 525:0.150612 526:0.00622512 527:0.0526668 528:0.0185729 529:0.0665905 530:0.12544 531:0.22911 532:0.099436 533:0.210545 534:0.129059 535:0.0361466 536:0.254849 537:0.22176 538:0.204879 539:0.135689 540:0.172082 541:0.121721 542:0.192314 543:0.155085 544:0.153683 545:0.263545 546:0.0617149 547:0.191257 548:0.263545 549:0.208344 550:0.0975802 551:0.0706087 552:0.0899249 553:0.136481 554:0.263545 555:0.0627633 556:0.065592 557:0.0340208 558:0.0471354 559:0.129447 560:0.263545 561:0.157749 562:0.037031 563:0.263545 564:0.223644 565:0.218999 566:0.157024 567:0.194703 568:0.045943 569:0.0263767 570:0.0352427 571:0.0446886 572:0.263545 573:0.195361 574:0.142557 575:0.0922466 576:0.260623 577:0.165962 578:0.131057 579:0.163067 580:0.254875 581:0.322732 582:0.113138 583:0.1169 584:0.0747972 585:0.0884269 586:0.135061 587:0.0723621 588:0.0547388 589:0.0481837 590:0.0690103 591:0.0488346 592:0.140132 593:0.117422 594:0.0972983 595:0.0795894 596:0.0574068 597:0.0655305 598:0.0794092 599:0.322732 600:0.322732 601:0.259446 602:0.166708 603:0.322732 604:0.143992 605:0.130917 606:0.10524 607:0.0908111 608:0.116622 609:0.11765 610:0.0686565 611:0.127773 612:0.322732 613:0.0954927 614:0.046995 615:0.0412855 616:0.0396361 617:0.0640815 618:0.0356777 619:0.0932729 620:0.0650001 621:0.062877 622:0.319103 623:0.197294 624:0.053036 625:0.0386643 626:0.0350439 627:0.0271983 628:0.169608 629:0.319103 630:0.319103 631:0.091701 632:0.068625 633:0.0718464 634:0.0624604 635:0.0998305 636:0.0868438 637:0.0471614 638:0.0883756 639:0.281599 640:0.319103 641:0.319103 642:0.148762 643:0.06038 644:0.0566176 645:0.142646 646:0.106034 647:0.29228 648:0.319103 649:0.159538 650:0.0883773 651:0.0258477 652:0.0199751 653:0.0191879 654:0.0148179 655:0.0864192 656:0.216332 657:0.225644 658:0.336281 659:0.130251 660:0.0120918 661:0.00605373 662:0.00507742 663:0.00678777 664:0.0272077 665:0.216277 666:0.336281 667:0.272391 668:0.257927 669:0.0751605 670:0.0335656 671:0.0317988 672:0.0730263 673:0.0492495 674:0.131403 675:0.23773 676:0.336281 677:0.236246 678:0.0242708 679:0.00415492 680:0.00416271 681:0.0234878 682:0.0289427 683:0.227129 684:0.336281 685:0.339093 686:0.0934128 687:0.00921548 688:0.00475447 689:0.00445211 690:0.00477682 691:0.0221414 692:0.168769 693:0.339093 694:0.339093 695:0.125201 696:0.0033574 697:0.00128989 698:0.00319768 699:0.00690124 700:0.0052028 701:0.0359569 702:0.29677 703:0.339093 704:0.186738 705:0.0193537 706:0.00441724 707:0.00415291 708:0.0187112 709:0.0226913 710:0.157602 711:0.339093 712:0.227011 713:0.0220214 714:0.00366107 715:0.00154651 716:0.00235096 717:0.00801104 718:0.00920301 719:0.224825 720:0.339093 721:0.381062 722:0.128718 723:0.00358654 724:0.00145817 725:0.00333615 726:0.00731008 727:0.00515669 728:0.0461416 729:0.336075 730:0.381062 731:0.174307 732:0.00899731 733:0.0124519 734:0.0467761 735:0.00779887 736:0.0184555 737:0.033123 738:0.157719 739:0.255683 740:0.0303489 741:0.00401509 742:0.00162264 743:0.00241833 744:0.00808639 745:0.00915427 746:0.234766 747:0.381062 748:0.148658 749:0.0231093 750:0.00654067 751:0.014036 752:0.036024 753:0.0142051 754:0.0368856 755:0.277692 756:0.381062 757:0.358058 758:0.158159 759:0.00811622 760:0.00870552 761:0.0379058 762:0.00704559 763:0.0150849 764:0.0274326 765:0.153009 766:0.358058 767:0.307024 768:0.0212447 769:0.0440986 770:0.0953841 771:0.0059457 772:0.0407404 773:0.14592 774:0.186721 775:0.140413 776:0.0184339 777:0.00595841 778:0.0104531 779:0.0292012 780:0.0127226 781:0.031213 782:0.258009 783:0.358058 784:0.177834 785:0.0959447 786:0.0161509 787:0.0396034 788:0.0736011 789:0.0081144 790:0.062056 791:0.358058 792:0.358058 793:0.332582 794:0.203369 795:0.0144841 796:0.0289537 797:0.0682499 798:0.00461099 799:0.0281661 800:0.0932457 801:0.122911 802:0.332582 803:0.326948 804:0.0102377 805:0.0196921 806:0.0236411 807:0.00142871 808:0.0123224 809:0.148147 810:0.307268 811:0.120906 812:0.0618077 813:0.0108538 814:0.0263974 815:0.0526074 816:0.00631421 817:0.0434519 818:0.262714 819:0.332582 820:0.207873 821:0.101352 822:0.0081649 823:0.0163362 824:0.0182723 825:0.000442767 826:0.0189908 827:0.332582 828:0.332582 829:0.339527 830:0.26325 831:0.00955566 832:0.018423 833:0.0224546 834:0.00115656 835:0.0113783 836:0.123034 837:0.236149 838:0.339527 839:0.231553 840:0.000550325 841:0.000368274 842:0.000301731 843:0.000796366 845:0.0769627 846:0.277128 847:0.163938 848:0.0832856 849:0.00757038 850:0.0152993 851:0.0173275 852:0.000441176 853:0.0174836 854:0.314943 855:0.339527 856:0.175314 857:0.0445433 858:0.000407921 859:0.000286436 862:0.00428045 863:0.30207 864:0.339527 865:0.367777 866:0.24016 867:0.00123458 868:0.000849104 869:0.000299576 870:0.000924278 872:0.0831761 873:0.284064 874:0.367777 875:0.200159 876:0.000380089 878:0.00108946 879:6.16185e-005 880:0.000320481 881:0.037558 882:0.186972 883:0.180455 884:0.0491789 885:0.000940514 886:0.000660414 889:0.00411587 890:0.310596 891:0.367777 892:0.128686 893:0.0134527 896:0.000745199 897:0.000100492 898:0.00543157 899:0.292097 900:0.367777 901:0.374687 902:0.229011 903:0.000384384 905:0.00115023 906:0.000159191 907:0.000295156 908:0.0464856 909:0.221772 910:0.374687 911:0.191522 912:0.0162784 913:0.0176793 914:0.0159177 915:0.0035584 916:0.00122133 917:0.0156408 918:0.102791 919:0.152685 920:0.0175958 923:0.000667427 924:5.01378e-005 925:0.00606855 926:0.331056 927:0.374687 928:0.0779922 929:0.00278319 930:0.00123202 931:0.0038638 932:0.0337696 933:0.028352 934:0.0363318 935:0.374086 936:0.374687 937:0.260773 938:0.13132 939:0.0620586 940:0.0336175 941:0.0474272 942:0.069168 943:0.104627 944:0.264899 945:0.299185 946:0.297986 947:0.299185 948:0.186684 949:0.00909638 950:0.0756643 951:0.0326912 952:0.0908501 953:0.137134 954:0.222266 955:0.161225 956:0.0361869 957:0.00452582 958:0.00030752 959:0.00268155 960:0.00773641 961:0.0318842 962:0.299185 963:0.299185 964:0.15697 965:0.111077 966:0.0344405 967:7.09662e-005 968:0.0822829 969:0.0282355 970:0.0208776 971:0.299185 972:0.299185 973:0.272695 974:0.272695 975:0.157151 976:0.00706345 977:0.0482418 978:0.0176699 979:0.0717661 980:0.129529 981:0.22208 982:0.101253 983:0.216101 984:0.13528 985:0.0396174 986:0.272695 987:0.210829 988:0.210255 989:0.144091 990:0.162494 991:0.159054 992:0.101481 993:0.0289821 994:7.85929e-005 995:0.0542201 996:0.015183 997:0.0138877 998:0.272695 999:0.272695 1000:0.0458161 1001:0.0451264 1002:0.0208478 1003:0.00397986 1004:0.272695 1005:0.184667 1006:0.112293 1007:0.272695 1008:0.272695 1009:0.10839 1010:0.22763 1011:0.137061 1012:0.033736 1013:0.299162 1014:0.176434 1015:0.187191 1016:0.139821 1017:0.155872 1018:0.0373504 1019:0.0230887 1020:0.0315426 1021:0.0392216 1022:0.299162 1023:0.154943 1024:0.118024 1025:0.0658178 1026:0.159402 1027:0.0462892 1028:0.0489511 1029:0.0222133 1030:0.0033506 1031:0.299162 1032:0.154778 1033:0.0946609 1034:0.299162 1035:0.299162 1036:0.0827793 1037:0.00329573 1038:0.0015949 1039:0.00726965 1040:0.270307 1041:0.132317 1042:0.0858653 1043:0.227054 1044:0.299162 1045:0.0444975 1046:0.0340435 1047:0.0394317 1048:0.0471858 1049:0.407002 1050:0.19623 1051:0.144844 1052:0.0818141 1053:0.176685 1054:0.071602 1055:0.0656576 1056:0.0531607 1057:0.0457542 1058:0.0586753 1059:0.0586993 1060:0.0351927 1061:0.057187 1062:0.140972 1063:0.0845324 1064:0.00428294 1065:0.00210681 1066:0.0083299 1067:0.340644 1068:0.16895 1069:0.107905 1070:0.267196 1071:0.407002 1072:0.180566 1073:0.0430401 1074:0.0330863 1075:0.0273519 1076:0.0546652 1077:0.0622654 1078:0.0338215 1079:0.264331 1080:0.407002 1081:0.0466751 1082:0.0355063 1083:0.037606 1084:0.0326902 1085:0.0523893 1086:0.0449225 1087:0.0251384 1088:0.039389 1089:0.109809 1090:0.324347 1091:0.296296 1092:0.0738658 1093:0.0302279 1094:0.0288176 1095:0.0710547 1096:0.05268 1097:0.163102 1098:0.28411 1099:0.127644 1100:0.0237378 1101:0.0226479 1102:0.0187752 1103:0.04421 1104:0.0466409 1105:0.0237158 1106:0.197654 1107:0.391108 1108:0.314455 1109:0.182196 1110:0.0561856 1111:0.0213004 1112:0.0301253 1113:0.0857351 1114:0.0656525 1115:0.374381 1116:0.391108 1117:0.183853 1118:0.168698 1119:0.0474738 1120:0.0213243 1121:0.0204919 1122:0.0462581 1123:0.0311634 1124:0.0928628 1125:0.153435 1126:0.368369 1127:0.158037 1128:0.0156547 1129:0.00287748 1130:0.00314193 1131:0.0155693 1132:0.0185194 1133:0.155518 1134:0.377852 1135:0.187249 1136:0.104152 1137:0.0360003 1138:0.0151247 1139:0.0217563 1140:0.0557404 1141:0.0388079 1142:0.221008 1143:0.377852 1144:0.252415 1145:0.0894768 1146:0.010801 1147:0.00128751 1148:0.00130429 1149:0.014925 1150:0.0213347 1151:0.328108 1152:0.377852 1153:0.286551 1154:0.136345 1155:0.0136215 1156:0.00321942 1157:0.00327398 1158:0.0134631 1159:0.0158428 1160:0.119485 1161:0.383086 1162:0.192598 1163:0.0215001 1164:0.00324567 1165:0.00131833 1166:0.00204971 1167:0.00616421 1168:0.00551783 1169:0.152135 1170:0.383086 1171:0.200333 1172:0.0782138 1173:0.00960365 1174:0.00183601 1175:0.00201029 1176:0.0136598 1177:0.018624 1178:0.249727 1179:0.383086 1180:0.142668 1181:0.014666 1182:0.00503513 1183:0.014569 1184:0.017688 1185:0.0383634 1186:0.0374676 1187:0.315447 1188:0.383086 1189:0.211518 1190:0.0272079 1191:0.00349434 1192:0.00136546 1193:0.00208389 1194:0.00624865 1195:0.00540582 1196:0.156892 1197:0.393573 1198:0.122317 1199:0.0212195 1200:0.00533481 1201:0.011783 1202:0.0313444 1203:0.0082516 1204:0.0253582 1205:0.185645 1206:0.393573 1207:0.152685 1208:0.0171074 1209:0.00477196 1210:0.0136156 1211:0.0146555 1212:0.0349589 1213:0.0354922 1214:0.327019 1215:0.393573 1216:0.113364 1217:0.0158739 1218:0.0137199 1219:0.040656 1220:0.0741504 1221:0.109027 1222:0.0729027 1223:0.288882 1224:0.393573 1225:0.132593 1226:0.0198435 1227:0.0055522 1228:0.0099064 1229:0.0288568 1230:0.00846848 1231:0.0236557 1232:0.193803 1233:0.369886 1234:0.157477 1235:0.091272 1236:0.0152946 1237:0.0386412 1238:0.07321 1239:0.00594117 1240:0.0583388 1241:0.341501 1242:0.369886 1243:0.122862 1244:0.0180763 1245:0.0145128 1246:0.0428824 1247:0.0737595 1248:0.114218 1249:0.0807408 1250:0.319486 1251:0.369886 1252:0.102759 1253:0.00621747 1254:0.006491 1255:0.0173752 1256:0.0410176 1257:0.0430645 1258:0.0241687 1259:0.268378 1260:0.369886 1261:0.122196 1262:0.0672949 1263:0.0117241 1264:0.0294291 1265:0.0598661 1266:0.00528252 1267:0.0464321 1268:0.260792 1269:0.36346 1270:0.22317 1271:0.113352 1272:0.0091156 1273:0.0184359 1274:0.0208677 1275:0.00050289 1276:0.0208089 1277:0.36346 1278:0.36346 1279:0.0848724 1280:0.00593273 1281:0.005733 1282:0.0159335 1283:0.037131 1284:0.0396404 1285:0.0228793 1286:0.214803 1287:0.36346 1288:0.0877168 1289:0.00431519 1290:0.00115737 1291:0.000649568 1292:0.000648006 1293:6.69976e-006 1294:0.00393433 1295:0.335846 1296:0.36346 1297:0.170574 1298:0.0904513 1299:0.00824656 1300:0.0168432 1301:0.0192959 1302:0.000486322 1303:0.0186986 1304:0.311688 1305:0.374905 1306:0.195388 1307:0.0543086 1308:0.000455073 1309:0.000319128 1312:0.00367264 1313:0.278416 1314:0.374905 1315:0.0686149 1316:0.00334586 1317:0.000936433 1318:0.000698512 1319:0.000774125 1320:1.2063e-005 1321:0.00336209 1322:0.2575 1323:0.374905 1324:0.0925057 1325:0.00419731 1326:0.000298539 1328:0.000133557 1330:0.00553818 1331:0.316608 1332:0.374905 1333:0.173762 1334:0.0512458 1335:0.000911314 1336:0.000639075 1339:0.00306198 1340:0.250674 1341:0.392636 1342:0.127861 1343:0.0183547 1346:0.000626013 1347:7.12229e-005 1348:0.004202 1349:0.215336 1350:0.392636 1351:0.0792697 1352:0.00371298 1353:0.000294803 1355:0.000130019 1357:0.00456042 1358:0.276347 1359:0.392636 1360:0.0915122 1361:0.00301389 1364:0.00112256 1365:0.000308632 1366:0.00810215 1367:0.35993 1368:0.392636 1369:0.127642 1370:0.0196042 1373:0.000474731 1374:2.98888e-005 1375:0.00394047 1376:0.206562 1377:0.3803 1378:0.0608542 1379:0.00370746 1380:0.000384207 1381:0.00120493 1382:0.0176493 1383:0.0179892 1384:0.0233938 1385:0.230162 1386:0.3803 1387:0.0869121 1388:0.00323706 1391:0.000820771 1392:0.000129518 1393:0.00751786 1394:0.333351 1395:0.3803 1396:0.137441 1397:0.00375983 1398:0.0320716 1399:0.0291984 1400:0.108422 1401:0.051467 1402:0.0434713 1403:0.3803 1404:0.3803 
